digraph Tree {
node [shape=box, style="filled, rounded", color="black", fontname="helvetica"] ;
edge [fontname="helvetica"] ;
0 [label=<HighBP &le; 0.5<br/>gini = 0.24<br/>samples = 202944<br/>value = [174595, 28349]<br/>class = No Diabetes>, fillcolor="#e99559"] ;
1 [label=<GenHlth &le; 2.5<br/>gini = 0.115<br/>samples = 116041<br/>value = [108962, 7079]<br/>class = No Diabetes>, fillcolor="#e78946"] ;
0 -> 1 [labeldistance=2.5, labelangle=45, headlabel="True"] ;
2 [label=<GenHlth &le; 1.5<br/>gini = 0.053<br/>samples = 74718<br/>value = [72682, 2036]<br/>class = No Diabetes>, fillcolor="#e6853f"] ;
1 -> 2 ;
3 [label=<Income &le; 5.5<br/>gini = 0.022<br/>samples = 28906<br/>value = [28578, 328]<br/>class = No Diabetes>, fillcolor="#e5823b"] ;
2 -> 3 ;
4 [label=<Education &le; 4.5<br/>gini = 0.046<br/>samples = 4803<br/>value = [4691, 112]<br/>class = No Diabetes>, fillcolor="#e6843e"] ;
3 -> 4 ;
5 [label=<Education &le; 3.5<br/>gini = 0.068<br/>samples = 1851<br/>value = [1786, 65]<br/>class = No Diabetes>, fillcolor="#e68640"] ;
4 -> 5 ;
6 [label=<Income &le; 2.5<br/>gini = 0.105<br/>samples = 343<br/>value = [324, 19]<br/>class = No Diabetes>, fillcolor="#e78845"] ;
5 -> 6 ;
7 [label=<Education &le; 2.5<br/>gini = 0.161<br/>samples = 113<br/>value = [103, 10]<br/>class = No Diabetes>, fillcolor="#e88d4c"] ;
6 -> 7 ;
8 [label=<Income &le; 1.5<br/>gini = 0.284<br/>samples = 35<br/>value = [29.0, 6.0]<br/>class = No Diabetes>, fillcolor="#ea9b62"] ;
7 -> 8 ;
9 [label=<Education &le; 1.5<br/>gini = 0.18<br/>samples = 20<br/>value = [18, 2]<br/>class = No Diabetes>, fillcolor="#e88f4f"] ;
8 -> 9 ;
10 [label=<gini = 0.0<br/>samples = 1<br/>value = [1, 0]<br/>class = No Diabetes>, fillcolor="#e58139"] ;
9 -> 10 ;
11 [label=<gini = 0.188<br/>samples = 19<br/>value = [17, 2]<br/>class = No Diabetes>, fillcolor="#e89050"] ;
9 -> 11 ;
12 [label=<Education &le; 1.5<br/>gini = 0.391<br/>samples = 15<br/>value = [11, 4]<br/>class = No Diabetes>, fillcolor="#eeaf81"] ;
8 -> 12 ;
13 [label=<gini = 0.0<br/>samples = 1<br/>value = [1, 0]<br/>class = No Diabetes>, fillcolor="#e58139"] ;
12 -> 13 ;
14 [label=<gini = 0.408<br/>samples = 14<br/>value = [10, 4]<br/>class = No Diabetes>, fillcolor="#efb388"] ;
12 -> 14 ;
15 [label=<Income &le; 1.5<br/>gini = 0.097<br/>samples = 78<br/>value = [74, 4]<br/>class = No Diabetes>, fillcolor="#e68844"] ;
7 -> 15 ;
16 [label=<gini = 0.075<br/>samples = 51<br/>value = [49, 2]<br/>class = No Diabetes>, fillcolor="#e68641"] ;
15 -> 16 ;
17 [label=<gini = 0.137<br/>samples = 27<br/>value = [25, 2]<br/>class = No Diabetes>, fillcolor="#e78b49"] ;
15 -> 17 ;
18 [label=<Education &le; 2.5<br/>gini = 0.075<br/>samples = 230<br/>value = [221, 9]<br/>class = No Diabetes>, fillcolor="#e68641"] ;
6 -> 18 ;
19 [label=<Income &le; 3.5<br/>gini = 0.031<br/>samples = 63<br/>value = [62, 1]<br/>class = No Diabetes>, fillcolor="#e5833c"] ;
18 -> 19 ;
20 [label=<Education &le; 1.5<br/>gini = 0.074<br/>samples = 26<br/>value = [25, 1]<br/>class = No Diabetes>, fillcolor="#e68641"] ;
19 -> 20 ;
21 [label=<gini = 0.0<br/>samples = 1<br/>value = [1, 0]<br/>class = No Diabetes>, fillcolor="#e58139"] ;
20 -> 21 ;
22 [label=<gini = 0.077<br/>samples = 25<br/>value = [24, 1]<br/>class = No Diabetes>, fillcolor="#e68641"] ;
20 -> 22 ;
23 [label=<gini = 0.0<br/>samples = 37<br/>value = [37, 0]<br/>class = No Diabetes>, fillcolor="#e58139"] ;
19 -> 23 ;
24 [label=<Income &le; 4.5<br/>gini = 0.091<br/>samples = 167<br/>value = [159, 8]<br/>class = No Diabetes>, fillcolor="#e68743"] ;
18 -> 24 ;
25 [label=<Income &le; 3.5<br/>gini = 0.081<br/>samples = 119<br/>value = [114, 5]<br/>class = No Diabetes>, fillcolor="#e68742"] ;
24 -> 25 ;
26 [label=<gini = 0.088<br/>samples = 65<br/>value = [62, 3]<br/>class = No Diabetes>, fillcolor="#e68743"] ;
25 -> 26 ;
27 [label=<gini = 0.071<br/>samples = 54<br/>value = [52, 2]<br/>class = No Diabetes>, fillcolor="#e68641"] ;
25 -> 27 ;
28 [label=<gini = 0.117<br/>samples = 48<br/>value = [45, 3]<br/>class = No Diabetes>, fillcolor="#e78946"] ;
24 -> 28 ;
29 [label=<Income &le; 3.5<br/>gini = 0.059<br/>samples = 1508<br/>value = [1462, 46]<br/>class = No Diabetes>, fillcolor="#e6853f"] ;
5 -> 29 ;
30 [label=<Income &le; 1.5<br/>gini = 0.066<br/>samples = 588<br/>value = [568.0, 20.0]<br/>class = No Diabetes>, fillcolor="#e68540"] ;
29 -> 30 ;
31 [label=<gini = 0.066<br/>samples = 146<br/>value = [141, 5]<br/>class = No Diabetes>, fillcolor="#e68540"] ;
30 -> 31 ;
32 [label=<Income &le; 2.5<br/>gini = 0.066<br/>samples = 442<br/>value = [427.0, 15.0]<br/>class = No Diabetes>, fillcolor="#e68540"] ;
30 -> 32 ;
33 [label=<gini = 0.065<br/>samples = 149<br/>value = [144, 5]<br/>class = No Diabetes>, fillcolor="#e68540"] ;
32 -> 33 ;
34 [label=<gini = 0.066<br/>samples = 293<br/>value = [283, 10]<br/>class = No Diabetes>, fillcolor="#e68540"] ;
32 -> 34 ;
35 [label=<Income &le; 4.5<br/>gini = 0.055<br/>samples = 920<br/>value = [894, 26]<br/>class = No Diabetes>, fillcolor="#e6853f"] ;
29 -> 35 ;
36 [label=<gini = 0.055<br/>samples = 390<br/>value = [379, 11]<br/>class = No Diabetes>, fillcolor="#e6853f"] ;
35 -> 36 ;
37 [label=<gini = 0.055<br/>samples = 530<br/>value = [515, 15]<br/>class = No Diabetes>, fillcolor="#e6853f"] ;
35 -> 37 ;
38 [label=<Income &le; 3.5<br/>gini = 0.031<br/>samples = 2952<br/>value = [2905, 47]<br/>class = No Diabetes>, fillcolor="#e5833c"] ;
4 -> 38 ;
39 [label=<Income &le; 2.5<br/>gini = 0.038<br/>samples = 987<br/>value = [968, 19]<br/>class = No Diabetes>, fillcolor="#e6833d"] ;
38 -> 39 ;
40 [label=<Income &le; 1.5<br/>gini = 0.027<br/>samples = 521<br/>value = [514, 7]<br/>class = No Diabetes>, fillcolor="#e5833c"] ;
39 -> 40 ;
41 [label=<Education &le; 5.5<br/>gini = 0.022<br/>samples = 275<br/>value = [272.0, 3.0]<br/>class = No Diabetes>, fillcolor="#e5823b"] ;
40 -> 41 ;
42 [label=<gini = 0.039<br/>samples = 150<br/>value = [147, 3]<br/>class = No Diabetes>, fillcolor="#e6843d"] ;
41 -> 42 ;
43 [label=<gini = 0.0<br/>samples = 125<br/>value = [125, 0]<br/>class = No Diabetes>, fillcolor="#e58139"] ;
41 -> 43 ;
44 [label=<Education &le; 5.5<br/>gini = 0.032<br/>samples = 246<br/>value = [242, 4]<br/>class = No Diabetes>, fillcolor="#e5833c"] ;
40 -> 44 ;
45 [label=<gini = 0.015<br/>samples = 129<br/>value = [128, 1]<br/>class = No Diabetes>, fillcolor="#e5823b"] ;
44 -> 45 ;
46 [label=<gini = 0.05<br/>samples = 117<br/>value = [114, 3]<br/>class = No Diabetes>, fillcolor="#e6843e"] ;
44 -> 46 ;
47 [label=<Education &le; 5.5<br/>gini = 0.05<br/>samples = 466<br/>value = [454, 12]<br/>class = No Diabetes>, fillcolor="#e6843e"] ;
39 -> 47 ;
48 [label=<gini = 0.063<br/>samples = 275<br/>value = [266, 9]<br/>class = No Diabetes>, fillcolor="#e68540"] ;
47 -> 48 ;
49 [label=<gini = 0.031<br/>samples = 191<br/>value = [188, 3]<br/>class = No Diabetes>, fillcolor="#e5833c"] ;
47 -> 49 ;
50 [label=<Education &le; 5.5<br/>gini = 0.028<br/>samples = 1965<br/>value = [1937, 28]<br/>class = No Diabetes>, fillcolor="#e5833c"] ;
38 -> 50 ;
51 [label=<Income &le; 4.5<br/>gini = 0.022<br/>samples = 971<br/>value = [960, 11]<br/>class = No Diabetes>, fillcolor="#e5823b"] ;
50 -> 51 ;
52 [label=<gini = 0.016<br/>samples = 379<br/>value = [376, 3]<br/>class = No Diabetes>, fillcolor="#e5823b"] ;
51 -> 52 ;
53 [label=<gini = 0.027<br/>samples = 592<br/>value = [584, 8]<br/>class = No Diabetes>, fillcolor="#e5833c"] ;
51 -> 53 ;
54 [label=<Income &le; 4.5<br/>gini = 0.034<br/>samples = 994<br/>value = [977, 17]<br/>class = No Diabetes>, fillcolor="#e5833c"] ;
50 -> 54 ;
55 [label=<gini = 0.034<br/>samples = 346<br/>value = [340.0, 6.0]<br/>class = No Diabetes>, fillcolor="#e5833c"] ;
54 -> 55 ;
56 [label=<gini = 0.033<br/>samples = 648<br/>value = [637, 11]<br/>class = No Diabetes>, fillcolor="#e5833c"] ;
54 -> 56 ;
57 [label=<Education &le; 5.5<br/>gini = 0.018<br/>samples = 24103<br/>value = [23887, 216]<br/>class = No Diabetes>, fillcolor="#e5823b"] ;
3 -> 57 ;
58 [label=<Income &le; 7.5<br/>gini = 0.025<br/>samples = 8181<br/>value = [8077, 104]<br/>class = No Diabetes>, fillcolor="#e5833c"] ;
57 -> 58 ;
59 [label=<Education &le; 2.5<br/>gini = 0.029<br/>samples = 4086<br/>value = [4025, 61]<br/>class = No Diabetes>, fillcolor="#e5833c"] ;
58 -> 59 ;
60 [label=<Income &le; 6.5<br/>gini = 0.071<br/>samples = 27<br/>value = [26, 1]<br/>class = No Diabetes>, fillcolor="#e68641"] ;
59 -> 60 ;
61 [label=<Education &le; 1.5<br/>gini = 0.117<br/>samples = 16<br/>value = [15, 1]<br/>class = No Diabetes>, fillcolor="#e78946"] ;
60 -> 61 ;
62 [label=<gini = 0.0<br/>samples = 1<br/>value = [1, 0]<br/>class = No Diabetes>, fillcolor="#e58139"] ;
61 -> 62 ;
63 [label=<gini = 0.124<br/>samples = 15<br/>value = [14, 1]<br/>class = No Diabetes>, fillcolor="#e78a47"] ;
61 -> 63 ;
64 [label=<gini = 0.0<br/>samples = 11<br/>value = [11, 0]<br/>class = No Diabetes>, fillcolor="#e58139"] ;
60 -> 64 ;
65 [label=<Education &le; 4.5<br/>gini = 0.029<br/>samples = 4059<br/>value = [3999, 60]<br/>class = No Diabetes>, fillcolor="#e5833c"] ;
59 -> 65 ;
66 [label=<Education &le; 3.5<br/>gini = 0.026<br/>samples = 1673<br/>value = [1651, 22]<br/>class = No Diabetes>, fillcolor="#e5833c"] ;
65 -> 66 ;
67 [label=<Income &le; 6.5<br/>gini = 0.041<br/>samples = 96<br/>value = [94, 2]<br/>class = No Diabetes>, fillcolor="#e6843d"] ;
66 -> 67 ;
68 [label=<gini = 0.038<br/>samples = 51<br/>value = [50, 1]<br/>class = No Diabetes>, fillcolor="#e6843d"] ;
67 -> 68 ;
69 [label=<gini = 0.043<br/>samples = 45<br/>value = [44, 1]<br/>class = No Diabetes>, fillcolor="#e6843d"] ;
67 -> 69 ;
70 [label=<Income &le; 6.5<br/>gini = 0.025<br/>samples = 1577<br/>value = [1557, 20]<br/>class = No Diabetes>, fillcolor="#e5833c"] ;
66 -> 70 ;
71 [label=<gini = 0.024<br/>samples = 755<br/>value = [746, 9]<br/>class = No Diabetes>, fillcolor="#e5833b"] ;
70 -> 71 ;
72 [label=<gini = 0.026<br/>samples = 822<br/>value = [811, 11]<br/>class = No Diabetes>, fillcolor="#e5833c"] ;
70 -> 72 ;
73 [label=<Income &le; 6.5<br/>gini = 0.031<br/>samples = 2386<br/>value = [2348, 38]<br/>class = No Diabetes>, fillcolor="#e5833c"] ;
65 -> 73 ;
74 [label=<gini = 0.034<br/>samples = 992<br/>value = [975, 17]<br/>class = No Diabetes>, fillcolor="#e5833c"] ;
73 -> 74 ;
75 [label=<gini = 0.03<br/>samples = 1394<br/>value = [1373, 21]<br/>class = No Diabetes>, fillcolor="#e5833c"] ;
73 -> 75 ;
76 [label=<Education &le; 3.5<br/>gini = 0.021<br/>samples = 4095<br/>value = [4052, 43]<br/>class = No Diabetes>, fillcolor="#e5823b"] ;
58 -> 76 ;
77 [label=<Education &le; 2.5<br/>gini = 0.046<br/>samples = 85<br/>value = [83, 2]<br/>class = No Diabetes>, fillcolor="#e6843e"] ;
76 -> 77 ;
78 [label=<gini = 0.0<br/>samples = 18<br/>value = [18, 0]<br/>class = No Diabetes>, fillcolor="#e58139"] ;
77 -> 78 ;
79 [label=<gini = 0.058<br/>samples = 67<br/>value = [65, 2]<br/>class = No Diabetes>, fillcolor="#e6853f"] ;
77 -> 79 ;
80 [label=<Education &le; 4.5<br/>gini = 0.02<br/>samples = 4010<br/>value = [3969, 41]<br/>class = No Diabetes>, fillcolor="#e5823b"] ;
76 -> 80 ;
81 [label=<gini = 0.022<br/>samples = 1280<br/>value = [1266, 14]<br/>class = No Diabetes>, fillcolor="#e5823b"] ;
80 -> 81 ;
82 [label=<gini = 0.02<br/>samples = 2730<br/>value = [2703, 27]<br/>class = No Diabetes>, fillcolor="#e5823b"] ;
80 -> 82 ;
83 [label=<Income &le; 6.5<br/>gini = 0.014<br/>samples = 15922<br/>value = [15810, 112]<br/>class = No Diabetes>, fillcolor="#e5823a"] ;
57 -> 83 ;
84 [label=<gini = 0.028<br/>samples = 1428<br/>value = [1408, 20]<br/>class = No Diabetes>, fillcolor="#e5833c"] ;
83 -> 84 ;
85 [label=<Income &le; 7.5<br/>gini = 0.013<br/>samples = 14494<br/>value = [14402, 92]<br/>class = No Diabetes>, fillcolor="#e5823a"] ;
83 -> 85 ;
86 [label=<gini = 0.01<br/>samples = 2691<br/>value = [2677.0, 14.0]<br/>class = No Diabetes>, fillcolor="#e5823a"] ;
85 -> 86 ;
87 [label=<gini = 0.013<br/>samples = 11803<br/>value = [11725, 78]<br/>class = No Diabetes>, fillcolor="#e5823a"] ;
85 -> 87 ;
88 [label=<Income &le; 6.5<br/>gini = 0.072<br/>samples = 45812<br/>value = [44104.0, 1708.0]<br/>class = No Diabetes>, fillcolor="#e68641"] ;
2 -> 88 ;
89 [label=<Income &le; 5.5<br/>gini = 0.092<br/>samples = 15485<br/>value = [14738, 747]<br/>class = No Diabetes>, fillcolor="#e68743"] ;
88 -> 89 ;
90 [label=<Education &le; 2.5<br/>gini = 0.097<br/>samples = 9202<br/>value = [8730, 472]<br/>class = No Diabetes>, fillcolor="#e68844"] ;
89 -> 90 ;
91 [label=<Income &le; 4.5<br/>gini = 0.154<br/>samples = 131<br/>value = [120, 11]<br/>class = No Diabetes>, fillcolor="#e78d4b"] ;
90 -> 91 ;
92 [label=<Income &le; 2.5<br/>gini = 0.127<br/>samples = 103<br/>value = [96, 7]<br/>class = No Diabetes>, fillcolor="#e78a47"] ;
91 -> 92 ;
93 [label=<Income &le; 1.5<br/>gini = 0.18<br/>samples = 30<br/>value = [27, 3]<br/>class = No Diabetes>, fillcolor="#e88f4f"] ;
92 -> 93 ;
94 [label=<gini = 0.142<br/>samples = 13<br/>value = [12, 1]<br/>class = No Diabetes>, fillcolor="#e78c49"] ;
93 -> 94 ;
95 [label=<Education &le; 1.5<br/>gini = 0.208<br/>samples = 17<br/>value = [15, 2]<br/>class = No Diabetes>, fillcolor="#e89253"] ;
93 -> 95 ;
96 [label=<gini = 0.0<br/>samples = 1<br/>value = [1, 0]<br/>class = No Diabetes>, fillcolor="#e58139"] ;
95 -> 96 ;
97 [label=<gini = 0.219<br/>samples = 16<br/>value = [14, 2]<br/>class = No Diabetes>, fillcolor="#e99355"] ;
95 -> 97 ;
98 [label=<Income &le; 3.5<br/>gini = 0.104<br/>samples = 73<br/>value = [69, 4]<br/>class = No Diabetes>, fillcolor="#e78844"] ;
92 -> 98 ;
99 [label=<Education &le; 1.5<br/>gini = 0.059<br/>samples = 33<br/>value = [32, 1]<br/>class = No Diabetes>, fillcolor="#e6853f"] ;
98 -> 99 ;
100 [label=<gini = 0.0<br/>samples = 1<br/>value = [1, 0]<br/>class = No Diabetes>, fillcolor="#e58139"] ;
99 -> 100 ;
101 [label=<gini = 0.061<br/>samples = 32<br/>value = [31, 1]<br/>class = No Diabetes>, fillcolor="#e6853f"] ;
99 -> 101 ;
102 [label=<gini = 0.139<br/>samples = 40<br/>value = [37, 3]<br/>class = No Diabetes>, fillcolor="#e78b49"] ;
98 -> 102 ;
103 [label=<Education &le; 1.5<br/>gini = 0.245<br/>samples = 28<br/>value = [24, 4]<br/>class = No Diabetes>, fillcolor="#e9965a"] ;
91 -> 103 ;
104 [label=<gini = 0.0<br/>samples = 2<br/>value = [2, 0]<br/>class = No Diabetes>, fillcolor="#e58139"] ;
103 -> 104 ;
105 [label=<gini = 0.26<br/>samples = 26<br/>value = [22, 4]<br/>class = No Diabetes>, fillcolor="#ea985d"] ;
103 -> 105 ;
106 [label=<Education &le; 5.5<br/>gini = 0.096<br/>samples = 9071<br/>value = [8610, 461]<br/>class = No Diabetes>, fillcolor="#e68844"] ;
90 -> 106 ;
107 [label=<Income &le; 1.5<br/>gini = 0.1<br/>samples = 6677<br/>value = [6323, 354]<br/>class = No Diabetes>, fillcolor="#e68844"] ;
106 -> 107 ;
108 [label=<Education &le; 4.5<br/>gini = 0.09<br/>samples = 530<br/>value = [505.0, 25.0]<br/>class = No Diabetes>, fillcolor="#e68743"] ;
107 -> 108 ;
109 [label=<Education &le; 3.5<br/>gini = 0.108<br/>samples = 296<br/>value = [279, 17]<br/>class = No Diabetes>, fillcolor="#e78945"] ;
108 -> 109 ;
110 [label=<gini = 0.119<br/>samples = 63<br/>value = [59, 4]<br/>class = No Diabetes>, fillcolor="#e78a46"] ;
109 -> 110 ;
111 [label=<gini = 0.105<br/>samples = 233<br/>value = [220, 13]<br/>class = No Diabetes>, fillcolor="#e78845"] ;
109 -> 111 ;
112 [label=<gini = 0.066<br/>samples = 234<br/>value = [226, 8]<br/>class = No Diabetes>, fillcolor="#e68540"] ;
108 -> 112 ;
113 [label=<Income &le; 3.5<br/>gini = 0.101<br/>samples = 6147<br/>value = [5818, 329]<br/>class = No Diabetes>, fillcolor="#e68844"] ;
107 -> 113 ;
114 [label=<Education &le; 3.5<br/>gini = 0.109<br/>samples = 1823<br/>value = [1718, 105]<br/>class = No Diabetes>, fillcolor="#e78945"] ;
113 -> 114 ;
115 [label=<Income &le; 2.5<br/>gini = 0.09<br/>samples = 148<br/>value = [141, 7]<br/>class = No Diabetes>, fillcolor="#e68743"] ;
114 -> 115 ;
116 [label=<gini = 0.124<br/>samples = 60<br/>value = [56, 4]<br/>class = No Diabetes>, fillcolor="#e78a47"] ;
115 -> 116 ;
117 [label=<gini = 0.066<br/>samples = 88<br/>value = [85, 3]<br/>class = No Diabetes>, fillcolor="#e68540"] ;
115 -> 117 ;
118 [label=<Income &le; 2.5<br/>gini = 0.11<br/>samples = 1675<br/>value = [1577, 98]<br/>class = No Diabetes>, fillcolor="#e78945"] ;
114 -> 118 ;
119 [label=<Education &le; 4.5<br/>gini = 0.114<br/>samples = 594<br/>value = [558, 36]<br/>class = No Diabetes>, fillcolor="#e78946"] ;
118 -> 119 ;
120 [label=<gini = 0.11<br/>samples = 309<br/>value = [291, 18]<br/>class = No Diabetes>, fillcolor="#e78945"] ;
119 -> 120 ;
121 [label=<gini = 0.118<br/>samples = 285<br/>value = [267, 18]<br/>class = No Diabetes>, fillcolor="#e78946"] ;
119 -> 121 ;
122 [label=<Education &le; 4.5<br/>gini = 0.108<br/>samples = 1081<br/>value = [1019, 62]<br/>class = No Diabetes>, fillcolor="#e78945"] ;
118 -> 122 ;
123 [label=<gini = 0.114<br/>samples = 575<br/>value = [540, 35]<br/>class = No Diabetes>, fillcolor="#e78946"] ;
122 -> 123 ;
124 [label=<gini = 0.101<br/>samples = 506<br/>value = [479, 27]<br/>class = No Diabetes>, fillcolor="#e68844"] ;
122 -> 124 ;
125 [label=<Income &le; 4.5<br/>gini = 0.098<br/>samples = 4324<br/>value = [4100, 224]<br/>class = No Diabetes>, fillcolor="#e68844"] ;
113 -> 125 ;
126 [label=<Education &le; 3.5<br/>gini = 0.096<br/>samples = 1726<br/>value = [1639, 87]<br/>class = No Diabetes>, fillcolor="#e68844"] ;
125 -> 126 ;
127 [label=<gini = 0.133<br/>samples = 98<br/>value = [91, 7]<br/>class = No Diabetes>, fillcolor="#e78b48"] ;
126 -> 127 ;
128 [label=<Education &le; 4.5<br/>gini = 0.093<br/>samples = 1628<br/>value = [1548, 80]<br/>class = No Diabetes>, fillcolor="#e68843"] ;
126 -> 128 ;
129 [label=<gini = 0.096<br/>samples = 829<br/>value = [787, 42]<br/>class = No Diabetes>, fillcolor="#e68844"] ;
128 -> 129 ;
130 [label=<gini = 0.091<br/>samples = 799<br/>value = [761, 38]<br/>class = No Diabetes>, fillcolor="#e68743"] ;
128 -> 130 ;
131 [label=<Education &le; 3.5<br/>gini = 0.1<br/>samples = 2598<br/>value = [2461, 137]<br/>class = No Diabetes>, fillcolor="#e68844"] ;
125 -> 131 ;
132 [label=<gini = 0.043<br/>samples = 92<br/>value = [90, 2]<br/>class = No Diabetes>, fillcolor="#e6843d"] ;
131 -> 132 ;
133 [label=<Education &le; 4.5<br/>gini = 0.102<br/>samples = 2506<br/>value = [2371, 135]<br/>class = No Diabetes>, fillcolor="#e68844"] ;
131 -> 133 ;
134 [label=<gini = 0.098<br/>samples = 1184<br/>value = [1123, 61]<br/>class = No Diabetes>, fillcolor="#e68844"] ;
133 -> 134 ;
135 [label=<gini = 0.106<br/>samples = 1322<br/>value = [1248, 74]<br/>class = No Diabetes>, fillcolor="#e78845"] ;
133 -> 135 ;
136 [label=<Income &le; 4.5<br/>gini = 0.085<br/>samples = 2394<br/>value = [2287, 107]<br/>class = No Diabetes>, fillcolor="#e68742"] ;
106 -> 136 ;
137 [label=<Income &le; 3.5<br/>gini = 0.089<br/>samples = 1284<br/>value = [1224, 60]<br/>class = No Diabetes>, fillcolor="#e68743"] ;
136 -> 137 ;
138 [label=<Income &le; 2.5<br/>gini = 0.084<br/>samples = 686<br/>value = [656, 30]<br/>class = No Diabetes>, fillcolor="#e68742"] ;
137 -> 138 ;
139 [label=<Income &le; 1.5<br/>gini = 0.087<br/>samples = 353<br/>value = [337, 16]<br/>class = No Diabetes>, fillcolor="#e68742"] ;
138 -> 139 ;
140 [label=<gini = 0.079<br/>samples = 171<br/>value = [164, 7]<br/>class = No Diabetes>, fillcolor="#e68641"] ;
139 -> 140 ;
141 [label=<gini = 0.094<br/>samples = 182<br/>value = [173, 9]<br/>class = No Diabetes>, fillcolor="#e68843"] ;
139 -> 141 ;
142 [label=<gini = 0.081<br/>samples = 333<br/>value = [319.0, 14.0]<br/>class = No Diabetes>, fillcolor="#e68742"] ;
138 -> 142 ;
143 [label=<gini = 0.095<br/>samples = 598<br/>value = [568, 30]<br/>class = No Diabetes>, fillcolor="#e68843"] ;
137 -> 143 ;
144 [label=<gini = 0.081<br/>samples = 1110<br/>value = [1063, 47]<br/>class = No Diabetes>, fillcolor="#e68742"] ;
136 -> 144 ;
145 [label=<Education &le; 4.5<br/>gini = 0.084<br/>samples = 6283<br/>value = [6008, 275]<br/>class = No Diabetes>, fillcolor="#e68742"] ;
89 -> 145 ;
146 [label=<Education &le; 2.5<br/>gini = 0.095<br/>samples = 1720<br/>value = [1634, 86]<br/>class = No Diabetes>, fillcolor="#e68843"] ;
145 -> 146 ;
147 [label=<gini = 0.0<br/>samples = 20<br/>value = [20, 0]<br/>class = No Diabetes>, fillcolor="#e58139"] ;
146 -> 147 ;
148 [label=<Education &le; 3.5<br/>gini = 0.096<br/>samples = 1700<br/>value = [1614, 86]<br/>class = No Diabetes>, fillcolor="#e68844"] ;
146 -> 148 ;
149 [label=<gini = 0.117<br/>samples = 96<br/>value = [90, 6]<br/>class = No Diabetes>, fillcolor="#e78946"] ;
148 -> 149 ;
150 [label=<gini = 0.095<br/>samples = 1604<br/>value = [1524, 80]<br/>class = No Diabetes>, fillcolor="#e68843"] ;
148 -> 150 ;
151 [label=<Education &le; 5.5<br/>gini = 0.079<br/>samples = 4563<br/>value = [4374.0, 189.0]<br/>class = No Diabetes>, fillcolor="#e68642"] ;
145 -> 151 ;
152 [label=<gini = 0.079<br/>samples = 2162<br/>value = [2073, 89]<br/>class = No Diabetes>, fillcolor="#e68642"] ;
151 -> 152 ;
153 [label=<gini = 0.08<br/>samples = 2401<br/>value = [2301, 100]<br/>class = No Diabetes>, fillcolor="#e68642"] ;
151 -> 153 ;
154 [label=<Income &le; 7.5<br/>gini = 0.061<br/>samples = 30327<br/>value = [29366, 961]<br/>class = No Diabetes>, fillcolor="#e6853f"] ;
88 -> 154 ;
155 [label=<Education &le; 2.5<br/>gini = 0.07<br/>samples = 8821<br/>value = [8500, 321]<br/>class = No Diabetes>, fillcolor="#e68640"] ;
154 -> 155 ;
156 [label=<Education &le; 1.5<br/>gini = 0.172<br/>samples = 21<br/>value = [19, 2]<br/>class = No Diabetes>, fillcolor="#e88e4e"] ;
155 -> 156 ;
157 [label=<gini = 0.0<br/>samples = 6<br/>value = [6, 0]<br/>class = No Diabetes>, fillcolor="#e58139"] ;
156 -> 157 ;
158 [label=<gini = 0.231<br/>samples = 15<br/>value = [13, 2]<br/>class = No Diabetes>, fillcolor="#e99457"] ;
156 -> 158 ;
159 [label=<Education &le; 5.5<br/>gini = 0.07<br/>samples = 8800<br/>value = [8481, 319]<br/>class = No Diabetes>, fillcolor="#e68640"] ;
155 -> 159 ;
160 [label=<Education &le; 3.5<br/>gini = 0.073<br/>samples = 4386<br/>value = [4219, 167]<br/>class = No Diabetes>, fillcolor="#e68641"] ;
159 -> 160 ;
161 [label=<gini = 0.104<br/>samples = 73<br/>value = [69, 4]<br/>class = No Diabetes>, fillcolor="#e78844"] ;
160 -> 161 ;
162 [label=<Education &le; 4.5<br/>gini = 0.073<br/>samples = 4313<br/>value = [4150, 163]<br/>class = No Diabetes>, fillcolor="#e68641"] ;
160 -> 162 ;
163 [label=<gini = 0.069<br/>samples = 1686<br/>value = [1626.0, 60.0]<br/>class = No Diabetes>, fillcolor="#e68640"] ;
162 -> 163 ;
164 [label=<gini = 0.075<br/>samples = 2627<br/>value = [2524.0, 103.0]<br/>class = No Diabetes>, fillcolor="#e68641"] ;
162 -> 164 ;
165 [label=<gini = 0.067<br/>samples = 4414<br/>value = [4262, 152]<br/>class = No Diabetes>, fillcolor="#e68540"] ;
159 -> 165 ;
166 [label=<Education &le; 2.5<br/>gini = 0.058<br/>samples = 21506<br/>value = [20866, 640]<br/>class = No Diabetes>, fillcolor="#e6853f"] ;
154 -> 166 ;
167 [label=<Education &le; 1.5<br/>gini = 0.204<br/>samples = 26<br/>value = [23, 3]<br/>class = No Diabetes>, fillcolor="#e89153"] ;
166 -> 167 ;
168 [label=<gini = 0.0<br/>samples = 3<br/>value = [3, 0]<br/>class = No Diabetes>, fillcolor="#e58139"] ;
167 -> 168 ;
169 [label=<gini = 0.227<br/>samples = 23<br/>value = [20, 3]<br/>class = No Diabetes>, fillcolor="#e99457"] ;
167 -> 169 ;
170 [label=<Education &le; 5.5<br/>gini = 0.058<br/>samples = 21480<br/>value = [20843, 637]<br/>class = No Diabetes>, fillcolor="#e6853f"] ;
166 -> 170 ;
171 [label=<Education &le; 3.5<br/>gini = 0.065<br/>samples = 6847<br/>value = [6618.0, 229.0]<br/>class = No Diabetes>, fillcolor="#e68540"] ;
170 -> 171 ;
172 [label=<gini = 0.105<br/>samples = 90<br/>value = [85, 5]<br/>class = No Diabetes>, fillcolor="#e78845"] ;
171 -> 172 ;
173 [label=<Education &le; 4.5<br/>gini = 0.064<br/>samples = 6757<br/>value = [6533.0, 224.0]<br/>class = No Diabetes>, fillcolor="#e68540"] ;
171 -> 173 ;
174 [label=<gini = 0.067<br/>samples = 2193<br/>value = [2117, 76]<br/>class = No Diabetes>, fillcolor="#e68640"] ;
173 -> 174 ;
175 [label=<gini = 0.063<br/>samples = 4564<br/>value = [4416, 148]<br/>class = No Diabetes>, fillcolor="#e68540"] ;
173 -> 175 ;
176 [label=<gini = 0.054<br/>samples = 14633<br/>value = [14225, 408]<br/>class = No Diabetes>, fillcolor="#e6853f"] ;
170 -> 176 ;
177 [label=<GenHlth &le; 3.5<br/>gini = 0.214<br/>samples = 41323<br/>value = [36280, 5043]<br/>class = No Diabetes>, fillcolor="#e99355"] ;
1 -> 177 ;
178 [label=<Income &le; 7.5<br/>gini = 0.173<br/>samples = 29500<br/>value = [26681, 2819]<br/>class = No Diabetes>, fillcolor="#e88e4e"] ;
177 -> 178 ;
179 [label=<Income &le; 4.5<br/>gini = 0.181<br/>samples = 20068<br/>value = [18051.0, 2017.0]<br/>class = No Diabetes>, fillcolor="#e88f4f"] ;
178 -> 179 ;
180 [label=<Education &le; 4.5<br/>gini = 0.193<br/>samples = 6827<br/>value = [6089, 738]<br/>class = No Diabetes>, fillcolor="#e89051"] ;
179 -> 180 ;
181 [label=<Income &le; 1.5<br/>gini = 0.206<br/>samples = 3652<br/>value = [3227, 425]<br/>class = No Diabetes>, fillcolor="#e89253"] ;
180 -> 181 ;
182 [label=<Education &le; 2.5<br/>gini = 0.185<br/>samples = 670<br/>value = [601, 69]<br/>class = No Diabetes>, fillcolor="#e88f50"] ;
181 -> 182 ;
183 [label=<Education &le; 1.5<br/>gini = 0.265<br/>samples = 70<br/>value = [59, 11]<br/>class = No Diabetes>, fillcolor="#ea985e"] ;
182 -> 183 ;
184 [label=<gini = 0.0<br/>samples = 1<br/>value = [1, 0]<br/>class = No Diabetes>, fillcolor="#e58139"] ;
183 -> 184 ;
185 [label=<gini = 0.268<br/>samples = 69<br/>value = [58.0, 11.0]<br/>class = No Diabetes>, fillcolor="#ea995f"] ;
183 -> 185 ;
186 [label=<Education &le; 3.5<br/>gini = 0.175<br/>samples = 600<br/>value = [542, 58]<br/>class = No Diabetes>, fillcolor="#e88e4e"] ;
182 -> 186 ;
187 [label=<gini = 0.157<br/>samples = 175<br/>value = [160, 15]<br/>class = No Diabetes>, fillcolor="#e78d4c"] ;
186 -> 187 ;
188 [label=<gini = 0.182<br/>samples = 425<br/>value = [382, 43]<br/>class = No Diabetes>, fillcolor="#e88f4f"] ;
186 -> 188 ;
189 [label=<Education &le; 3.5<br/>gini = 0.21<br/>samples = 2982<br/>value = [2626, 356]<br/>class = No Diabetes>, fillcolor="#e99254"] ;
181 -> 189 ;
190 [label=<Income &le; 3.5<br/>gini = 0.195<br/>samples = 785<br/>value = [699, 86]<br/>class = No Diabetes>, fillcolor="#e89151"] ;
189 -> 190 ;
191 [label=<Education &le; 1.5<br/>gini = 0.212<br/>samples = 499<br/>value = [439, 60]<br/>class = No Diabetes>, fillcolor="#e99254"] ;
190 -> 191 ;
192 [label=<Income &le; 2.5<br/>gini = 0.32<br/>samples = 5<br/>value = [4, 1]<br/>class = No Diabetes>, fillcolor="#eca06a"] ;
191 -> 192 ;
193 [label=<gini = 0.0<br/>samples = 3<br/>value = [3, 0]<br/>class = No Diabetes>, fillcolor="#e58139"] ;
192 -> 193 ;
194 [label=<gini = 0.5<br/>samples = 2<br/>value = [1, 1]<br/>class = No Diabetes>, fillcolor="#ffffff"] ;
192 -> 194 ;
195 [label=<Income &le; 2.5<br/>gini = 0.21<br/>samples = 494<br/>value = [435, 59]<br/>class = No Diabetes>, fillcolor="#e99254"] ;
191 -> 195 ;
196 [label=<Education &le; 2.5<br/>gini = 0.226<br/>samples = 223<br/>value = [194.0, 29.0]<br/>class = No Diabetes>, fillcolor="#e99457"] ;
195 -> 196 ;
197 [label=<gini = 0.182<br/>samples = 69<br/>value = [62, 7]<br/>class = No Diabetes>, fillcolor="#e88f4f"] ;
196 -> 197 ;
198 [label=<gini = 0.245<br/>samples = 154<br/>value = [132, 22]<br/>class = No Diabetes>, fillcolor="#e9965a"] ;
196 -> 198 ;
199 [label=<Education &le; 2.5<br/>gini = 0.197<br/>samples = 271<br/>value = [241.0, 30.0]<br/>class = No Diabetes>, fillcolor="#e89152"] ;
195 -> 199 ;
200 [label=<gini = 0.25<br/>samples = 82<br/>value = [70, 12]<br/>class = No Diabetes>, fillcolor="#e9975b"] ;
199 -> 200 ;
201 [label=<gini = 0.172<br/>samples = 189<br/>value = [171, 18]<br/>class = No Diabetes>, fillcolor="#e88e4e"] ;
199 -> 201 ;
202 [label=<Education &le; 2.5<br/>gini = 0.165<br/>samples = 286<br/>value = [260, 26]<br/>class = No Diabetes>, fillcolor="#e88e4d"] ;
190 -> 202 ;
203 [label=<Education &le; 1.5<br/>gini = 0.141<br/>samples = 92<br/>value = [85, 7]<br/>class = No Diabetes>, fillcolor="#e78b49"] ;
202 -> 203 ;
204 [label=<gini = 0.0<br/>samples = 3<br/>value = [3, 0]<br/>class = No Diabetes>, fillcolor="#e58139"] ;
203 -> 204 ;
205 [label=<gini = 0.145<br/>samples = 89<br/>value = [82, 7]<br/>class = No Diabetes>, fillcolor="#e78c4a"] ;
203 -> 205 ;
206 [label=<gini = 0.177<br/>samples = 194<br/>value = [175, 19]<br/>class = No Diabetes>, fillcolor="#e88f4e"] ;
202 -> 206 ;
207 [label=<Income &le; 2.5<br/>gini = 0.216<br/>samples = 2197<br/>value = [1927, 270]<br/>class = No Diabetes>, fillcolor="#e99355"] ;
189 -> 207 ;
208 [label=<gini = 0.225<br/>samples = 481<br/>value = [419, 62]<br/>class = No Diabetes>, fillcolor="#e99456"] ;
207 -> 208 ;
209 [label=<Income &le; 3.5<br/>gini = 0.213<br/>samples = 1716<br/>value = [1508, 208]<br/>class = No Diabetes>, fillcolor="#e99254"] ;
207 -> 209 ;
210 [label=<gini = 0.208<br/>samples = 720<br/>value = [635, 85]<br/>class = No Diabetes>, fillcolor="#e89254"] ;
209 -> 210 ;
211 [label=<gini = 0.216<br/>samples = 996<br/>value = [873, 123]<br/>class = No Diabetes>, fillcolor="#e99355"] ;
209 -> 211 ;
212 [label=<Income &le; 3.5<br/>gini = 0.178<br/>samples = 3175<br/>value = [2862, 313]<br/>class = No Diabetes>, fillcolor="#e88f4f"] ;
180 -> 212 ;
213 [label=<Education &le; 5.5<br/>gini = 0.185<br/>samples = 1879<br/>value = [1685, 194]<br/>class = No Diabetes>, fillcolor="#e89050"] ;
212 -> 213 ;
214 [label=<Income &le; 1.5<br/>gini = 0.206<br/>samples = 1245<br/>value = [1100, 145]<br/>class = No Diabetes>, fillcolor="#e89253"] ;
213 -> 214 ;
215 [label=<gini = 0.179<br/>samples = 292<br/>value = [263, 29]<br/>class = No Diabetes>, fillcolor="#e88f4f"] ;
214 -> 215 ;
216 [label=<Income &le; 2.5<br/>gini = 0.214<br/>samples = 953<br/>value = [837, 116]<br/>class = No Diabetes>, fillcolor="#e99254"] ;
214 -> 216 ;
217 [label=<gini = 0.214<br/>samples = 361<br/>value = [317, 44]<br/>class = No Diabetes>, fillcolor="#e99254"] ;
216 -> 217 ;
218 [label=<gini = 0.214<br/>samples = 592<br/>value = [520, 72]<br/>class = No Diabetes>, fillcolor="#e99254"] ;
216 -> 218 ;
219 [label=<Income &le; 2.5<br/>gini = 0.143<br/>samples = 634<br/>value = [585, 49]<br/>class = No Diabetes>, fillcolor="#e78c4a"] ;
213 -> 219 ;
220 [label=<Income &le; 1.5<br/>gini = 0.13<br/>samples = 344<br/>value = [320, 24]<br/>class = No Diabetes>, fillcolor="#e78a48"] ;
219 -> 220 ;
221 [label=<gini = 0.133<br/>samples = 168<br/>value = [156, 12]<br/>class = No Diabetes>, fillcolor="#e78b48"] ;
220 -> 221 ;
222 [label=<gini = 0.127<br/>samples = 176<br/>value = [164, 12]<br/>class = No Diabetes>, fillcolor="#e78a47"] ;
220 -> 222 ;
223 [label=<gini = 0.158<br/>samples = 290<br/>value = [265, 25]<br/>class = No Diabetes>, fillcolor="#e78d4c"] ;
219 -> 223 ;
224 [label=<Education &le; 5.5<br/>gini = 0.167<br/>samples = 1296<br/>value = [1177, 119]<br/>class = No Diabetes>, fillcolor="#e88e4d"] ;
212 -> 224 ;
225 [label=<gini = 0.148<br/>samples = 797<br/>value = [733.0, 64.0]<br/>class = No Diabetes>, fillcolor="#e78c4a"] ;
224 -> 225 ;
226 [label=<gini = 0.196<br/>samples = 499<br/>value = [444, 55]<br/>class = No Diabetes>, fillcolor="#e89152"] ;
224 -> 226 ;
227 [label=<Income &le; 6.5<br/>gini = 0.175<br/>samples = 13241<br/>value = [11962, 1279]<br/>class = No Diabetes>, fillcolor="#e88e4e"] ;
179 -> 227 ;
228 [label=<Education &le; 2.5<br/>gini = 0.169<br/>samples = 7976<br/>value = [7232, 744]<br/>class = No Diabetes>, fillcolor="#e88e4d"] ;
227 -> 228 ;
229 [label=<Income &le; 5.5<br/>gini = 0.107<br/>samples = 141<br/>value = [133, 8]<br/>class = No Diabetes>, fillcolor="#e78945"] ;
228 -> 229 ;
230 [label=<Education &le; 1.5<br/>gini = 0.174<br/>samples = 83<br/>value = [75, 8]<br/>class = No Diabetes>, fillcolor="#e88e4e"] ;
229 -> 230 ;
231 [label=<gini = 0.0<br/>samples = 2<br/>value = [2, 0]<br/>class = No Diabetes>, fillcolor="#e58139"] ;
230 -> 231 ;
232 [label=<gini = 0.178<br/>samples = 81<br/>value = [73, 8]<br/>class = No Diabetes>, fillcolor="#e88f4f"] ;
230 -> 232 ;
233 [label=<gini = 0.0<br/>samples = 58<br/>value = [58, 0]<br/>class = No Diabetes>, fillcolor="#e58139"] ;
229 -> 233 ;
234 [label=<Education &le; 4.5<br/>gini = 0.17<br/>samples = 7835<br/>value = [7099, 736]<br/>class = No Diabetes>, fillcolor="#e88e4e"] ;
228 -> 234 ;
235 [label=<Education &le; 3.5<br/>gini = 0.18<br/>samples = 2962<br/>value = [2666, 296]<br/>class = No Diabetes>, fillcolor="#e88f4f"] ;
234 -> 235 ;
236 [label=<Income &le; 5.5<br/>gini = 0.153<br/>samples = 336<br/>value = [308, 28]<br/>class = No Diabetes>, fillcolor="#e78c4b"] ;
235 -> 236 ;
237 [label=<gini = 0.174<br/>samples = 197<br/>value = [178, 19]<br/>class = No Diabetes>, fillcolor="#e88e4e"] ;
236 -> 237 ;
238 [label=<gini = 0.121<br/>samples = 139<br/>value = [130, 9]<br/>class = No Diabetes>, fillcolor="#e78a47"] ;
236 -> 238 ;
239 [label=<Income &le; 5.5<br/>gini = 0.183<br/>samples = 2626<br/>value = [2358, 268]<br/>class = No Diabetes>, fillcolor="#e88f50"] ;
235 -> 239 ;
240 [label=<gini = 0.178<br/>samples = 1137<br/>value = [1025, 112]<br/>class = No Diabetes>, fillcolor="#e88f4f"] ;
239 -> 240 ;
241 [label=<gini = 0.188<br/>samples = 1489<br/>value = [1333, 156]<br/>class = No Diabetes>, fillcolor="#e89050"] ;
239 -> 241 ;
242 [label=<Income &le; 5.5<br/>gini = 0.164<br/>samples = 4873<br/>value = [4433, 440]<br/>class = No Diabetes>, fillcolor="#e88e4d"] ;
234 -> 242 ;
243 [label=<Education &le; 5.5<br/>gini = 0.168<br/>samples = 1897<br/>value = [1721, 176]<br/>class = No Diabetes>, fillcolor="#e88e4d"] ;
242 -> 243 ;
244 [label=<gini = 0.175<br/>samples = 1112<br/>value = [1004.0, 108.0]<br/>class = No Diabetes>, fillcolor="#e88f4e"] ;
243 -> 244 ;
245 [label=<gini = 0.158<br/>samples = 785<br/>value = [717, 68]<br/>class = No Diabetes>, fillcolor="#e78d4c"] ;
243 -> 245 ;
246 [label=<Education &le; 5.5<br/>gini = 0.162<br/>samples = 2976<br/>value = [2712, 264]<br/>class = No Diabetes>, fillcolor="#e88d4c"] ;
242 -> 246 ;
247 [label=<gini = 0.161<br/>samples = 1521<br/>value = [1387, 134]<br/>class = No Diabetes>, fillcolor="#e88d4c"] ;
246 -> 247 ;
248 [label=<gini = 0.163<br/>samples = 1455<br/>value = [1325, 130]<br/>class = No Diabetes>, fillcolor="#e88d4c"] ;
246 -> 248 ;
249 [label=<Education &le; 1.5<br/>gini = 0.183<br/>samples = 5265<br/>value = [4730, 535]<br/>class = No Diabetes>, fillcolor="#e88f4f"] ;
227 -> 249 ;
250 [label=<gini = 0.0<br/>samples = 1<br/>value = [0, 1]<br/>class = Diabetes>, fillcolor="#399de5"] ;
249 -> 250 ;
251 [label=<Education &le; 5.5<br/>gini = 0.182<br/>samples = 5264<br/>value = [4730, 534]<br/>class = No Diabetes>, fillcolor="#e88f4f"] ;
249 -> 251 ;
252 [label=<Education &le; 3.5<br/>gini = 0.189<br/>samples = 3069<br/>value = [2745, 324]<br/>class = No Diabetes>, fillcolor="#e89050"] ;
251 -> 252 ;
253 [label=<Education &le; 2.5<br/>gini = 0.15<br/>samples = 110<br/>value = [101, 9]<br/>class = No Diabetes>, fillcolor="#e78c4b"] ;
252 -> 253 ;
254 [label=<gini = 0.18<br/>samples = 30<br/>value = [27, 3]<br/>class = No Diabetes>, fillcolor="#e88f4f"] ;
253 -> 254 ;
255 [label=<gini = 0.139<br/>samples = 80<br/>value = [74, 6]<br/>class = No Diabetes>, fillcolor="#e78b49"] ;
253 -> 255 ;
256 [label=<Education &le; 4.5<br/>gini = 0.19<br/>samples = 2959<br/>value = [2644, 315]<br/>class = No Diabetes>, fillcolor="#e89051"] ;
252 -> 256 ;
257 [label=<gini = 0.187<br/>samples = 1306<br/>value = [1170, 136]<br/>class = No Diabetes>, fillcolor="#e89050"] ;
256 -> 257 ;
258 [label=<gini = 0.193<br/>samples = 1653<br/>value = [1474, 179]<br/>class = No Diabetes>, fillcolor="#e89051"] ;
256 -> 258 ;
259 [label=<gini = 0.173<br/>samples = 2195<br/>value = [1985, 210]<br/>class = No Diabetes>, fillcolor="#e88e4e"] ;
251 -> 259 ;
260 [label=<Education &le; 5.5<br/>gini = 0.156<br/>samples = 9432<br/>value = [8630, 802]<br/>class = No Diabetes>, fillcolor="#e78d4b"] ;
178 -> 260 ;
261 [label=<Education &le; 3.5<br/>gini = 0.165<br/>samples = 3711<br/>value = [3375, 336]<br/>class = No Diabetes>, fillcolor="#e88e4d"] ;
260 -> 261 ;
262 [label=<Education &le; 2.5<br/>gini = 0.187<br/>samples = 96<br/>value = [86, 10]<br/>class = No Diabetes>, fillcolor="#e89050"] ;
261 -> 262 ;
263 [label=<Education &le; 1.5<br/>gini = 0.117<br/>samples = 16<br/>value = [15, 1]<br/>class = No Diabetes>, fillcolor="#e78946"] ;
262 -> 263 ;
264 [label=<gini = 0.0<br/>samples = 1<br/>value = [1, 0]<br/>class = No Diabetes>, fillcolor="#e58139"] ;
263 -> 264 ;
265 [label=<gini = 0.124<br/>samples = 15<br/>value = [14, 1]<br/>class = No Diabetes>, fillcolor="#e78a47"] ;
263 -> 265 ;
266 [label=<gini = 0.2<br/>samples = 80<br/>value = [71, 9]<br/>class = No Diabetes>, fillcolor="#e89152"] ;
262 -> 266 ;
267 [label=<Education &le; 4.5<br/>gini = 0.164<br/>samples = 3615<br/>value = [3289, 326]<br/>class = No Diabetes>, fillcolor="#e88d4d"] ;
261 -> 267 ;
268 [label=<gini = 0.163<br/>samples = 1361<br/>value = [1239, 122]<br/>class = No Diabetes>, fillcolor="#e88d4c"] ;
267 -> 268 ;
269 [label=<gini = 0.165<br/>samples = 2254<br/>value = [2050, 204]<br/>class = No Diabetes>, fillcolor="#e88e4d"] ;
267 -> 269 ;
270 [label=<gini = 0.15<br/>samples = 5721<br/>value = [5255.0, 466.0]<br/>class = No Diabetes>, fillcolor="#e78c4b"] ;
260 -> 270 ;
271 [label=<Education &le; 3.5<br/>gini = 0.305<br/>samples = 11823<br/>value = [9599, 2224]<br/>class = No Diabetes>, fillcolor="#eb9e67"] ;
177 -> 271 ;
272 [label=<GenHlth &le; 4.5<br/>gini = 0.351<br/>samples = 1506<br/>value = [1164, 342]<br/>class = No Diabetes>, fillcolor="#eda673"] ;
271 -> 272 ;
273 [label=<Income &le; 2.5<br/>gini = 0.331<br/>samples = 1084<br/>value = [857, 227]<br/>class = No Diabetes>, fillcolor="#eca26d"] ;
272 -> 273 ;
274 [label=<Education &le; 1.5<br/>gini = 0.347<br/>samples = 411<br/>value = [319, 92]<br/>class = No Diabetes>, fillcolor="#eca572"] ;
273 -> 274 ;
275 [label=<Income &le; 1.5<br/>gini = 0.469<br/>samples = 8<br/>value = [5, 3]<br/>class = No Diabetes>, fillcolor="#f5cdb0"] ;
274 -> 275 ;
276 [label=<gini = 0.444<br/>samples = 3<br/>value = [2, 1]<br/>class = No Diabetes>, fillcolor="#f2c09c"] ;
275 -> 276 ;
277 [label=<gini = 0.48<br/>samples = 5<br/>value = [3, 2]<br/>class = No Diabetes>, fillcolor="#f6d5bd"] ;
275 -> 277 ;
278 [label=<Income &le; 1.5<br/>gini = 0.344<br/>samples = 403<br/>value = [314, 89]<br/>class = No Diabetes>, fillcolor="#eca571"] ;
274 -> 278 ;
279 [label=<Education &le; 2.5<br/>gini = 0.34<br/>samples = 221<br/>value = [173, 48]<br/>class = No Diabetes>, fillcolor="#eca470"] ;
278 -> 279 ;
280 [label=<gini = 0.347<br/>samples = 85<br/>value = [66, 19]<br/>class = No Diabetes>, fillcolor="#eca572"] ;
279 -> 280 ;
281 [label=<gini = 0.336<br/>samples = 136<br/>value = [107, 29]<br/>class = No Diabetes>, fillcolor="#eca36f"] ;
279 -> 281 ;
282 [label=<Education &le; 2.5<br/>gini = 0.349<br/>samples = 182<br/>value = [141, 41]<br/>class = No Diabetes>, fillcolor="#eda673"] ;
278 -> 282 ;
283 [label=<gini = 0.341<br/>samples = 78<br/>value = [61, 17]<br/>class = No Diabetes>, fillcolor="#eca470"] ;
282 -> 283 ;
284 [label=<gini = 0.355<br/>samples = 104<br/>value = [80, 24]<br/>class = No Diabetes>, fillcolor="#eda774"] ;
282 -> 284 ;
285 [label=<Income &le; 4.5<br/>gini = 0.321<br/>samples = 673<br/>value = [538, 135]<br/>class = No Diabetes>, fillcolor="#eca16b"] ;
273 -> 285 ;
286 [label=<Education &le; 2.5<br/>gini = 0.301<br/>samples = 385<br/>value = [314, 71]<br/>class = No Diabetes>, fillcolor="#eb9d66"] ;
285 -> 286 ;
287 [label=<Income &le; 3.5<br/>gini = 0.264<br/>samples = 160<br/>value = [135, 25]<br/>class = No Diabetes>, fillcolor="#ea985e"] ;
286 -> 287 ;
288 [label=<Education &le; 1.5<br/>gini = 0.256<br/>samples = 93<br/>value = [79, 14]<br/>class = No Diabetes>, fillcolor="#ea975c"] ;
287 -> 288 ;
289 [label=<gini = 0.375<br/>samples = 4<br/>value = [3, 1]<br/>class = No Diabetes>, fillcolor="#eeab7b"] ;
288 -> 289 ;
290 [label=<gini = 0.249<br/>samples = 89<br/>value = [76, 13]<br/>class = No Diabetes>, fillcolor="#e9975b"] ;
288 -> 290 ;
291 [label=<Education &le; 1.5<br/>gini = 0.274<br/>samples = 67<br/>value = [56, 11]<br/>class = No Diabetes>, fillcolor="#ea9a60"] ;
287 -> 291 ;
292 [label=<gini = 0.0<br/>samples = 3<br/>value = [3, 0]<br/>class = No Diabetes>, fillcolor="#e58139"] ;
291 -> 292 ;
293 [label=<gini = 0.285<br/>samples = 64<br/>value = [53, 11]<br/>class = No Diabetes>, fillcolor="#ea9b62"] ;
291 -> 293 ;
294 [label=<Income &le; 3.5<br/>gini = 0.325<br/>samples = 225<br/>value = [179, 46]<br/>class = No Diabetes>, fillcolor="#eca16c"] ;
286 -> 294 ;
295 [label=<gini = 0.32<br/>samples = 140<br/>value = [112, 28]<br/>class = No Diabetes>, fillcolor="#eca06a"] ;
294 -> 295 ;
296 [label=<gini = 0.334<br/>samples = 85<br/>value = [67, 18]<br/>class = No Diabetes>, fillcolor="#eca36e"] ;
294 -> 296 ;
297 [label=<Education &le; 2.5<br/>gini = 0.346<br/>samples = 288<br/>value = [224, 64]<br/>class = No Diabetes>, fillcolor="#eca572"] ;
285 -> 297 ;
298 [label=<Income &le; 5.5<br/>gini = 0.386<br/>samples = 92<br/>value = [68, 24]<br/>class = No Diabetes>, fillcolor="#eead7f"] ;
297 -> 298 ;
299 [label=<Education &le; 1.5<br/>gini = 0.44<br/>samples = 52<br/>value = [35, 17]<br/>class = No Diabetes>, fillcolor="#f2be99"] ;
298 -> 299 ;
300 [label=<gini = 0.0<br/>samples = 4<br/>value = [4, 0]<br/>class = No Diabetes>, fillcolor="#e58139"] ;
299 -> 300 ;
301 [label=<gini = 0.457<br/>samples = 48<br/>value = [31, 17]<br/>class = No Diabetes>, fillcolor="#f3c6a6"] ;
299 -> 301 ;
302 [label=<Income &le; 6.5<br/>gini = 0.289<br/>samples = 40<br/>value = [33, 7]<br/>class = No Diabetes>, fillcolor="#eb9c63"] ;
298 -> 302 ;
303 [label=<gini = 0.142<br/>samples = 26<br/>value = [24, 2]<br/>class = No Diabetes>, fillcolor="#e78c49"] ;
302 -> 303 ;
304 [label=<Education &le; 1.5<br/>gini = 0.459<br/>samples = 14<br/>value = [9, 5]<br/>class = No Diabetes>, fillcolor="#f3c7a7"] ;
302 -> 304 ;
305 [label=<Income &le; 7.5<br/>gini = 0.5<br/>samples = 2<br/>value = [1, 1]<br/>class = No Diabetes>, fillcolor="#ffffff"] ;
304 -> 305 ;
306 [label=<gini = 0.0<br/>samples = 1<br/>value = [1, 0]<br/>class = No Diabetes>, fillcolor="#e58139"] ;
305 -> 306 ;
307 [label=<gini = 0.0<br/>samples = 1<br/>value = [0, 1]<br/>class = Diabetes>, fillcolor="#399de5"] ;
305 -> 307 ;
308 [label=<Income &le; 7.5<br/>gini = 0.444<br/>samples = 12<br/>value = [8, 4]<br/>class = No Diabetes>, fillcolor="#f2c09c"] ;
304 -> 308 ;
309 [label=<gini = 0.48<br/>samples = 10<br/>value = [6, 4]<br/>class = No Diabetes>, fillcolor="#f6d5bd"] ;
308 -> 309 ;
310 [label=<gini = 0.0<br/>samples = 2<br/>value = [2, 0]<br/>class = No Diabetes>, fillcolor="#e58139"] ;
308 -> 310 ;
311 [label=<Income &le; 6.5<br/>gini = 0.325<br/>samples = 196<br/>value = [156, 40]<br/>class = No Diabetes>, fillcolor="#eca16c"] ;
297 -> 311 ;
312 [label=<Income &le; 5.5<br/>gini = 0.351<br/>samples = 141<br/>value = [109, 32]<br/>class = No Diabetes>, fillcolor="#eda673"] ;
311 -> 312 ;
313 [label=<gini = 0.323<br/>samples = 89<br/>value = [71, 18]<br/>class = No Diabetes>, fillcolor="#eca16b"] ;
312 -> 313 ;
314 [label=<gini = 0.393<br/>samples = 52<br/>value = [38, 14]<br/>class = No Diabetes>, fillcolor="#efaf82"] ;
312 -> 314 ;
315 [label=<Income &le; 7.5<br/>gini = 0.249<br/>samples = 55<br/>value = [47, 8]<br/>class = No Diabetes>, fillcolor="#e9965b"] ;
311 -> 315 ;
316 [label=<gini = 0.17<br/>samples = 32<br/>value = [29, 3]<br/>class = No Diabetes>, fillcolor="#e88e4d"] ;
315 -> 316 ;
317 [label=<gini = 0.34<br/>samples = 23<br/>value = [18, 5]<br/>class = No Diabetes>, fillcolor="#eca470"] ;
315 -> 317 ;
318 [label=<Income &le; 1.5<br/>gini = 0.396<br/>samples = 422<br/>value = [307.0, 115.0]<br/>class = No Diabetes>, fillcolor="#efb083"] ;
272 -> 318 ;
319 [label=<Education &le; 1.5<br/>gini = 0.313<br/>samples = 108<br/>value = [87, 21]<br/>class = No Diabetes>, fillcolor="#eb9f69"] ;
318 -> 319 ;
320 [label=<gini = 0.0<br/>samples = 3<br/>value = [3, 0]<br/>class = No Diabetes>, fillcolor="#e58139"] ;
319 -> 320 ;
321 [label=<Education &le; 2.5<br/>gini = 0.32<br/>samples = 105<br/>value = [84, 21]<br/>class = No Diabetes>, fillcolor="#eca06a"] ;
319 -> 321 ;
322 [label=<gini = 0.359<br/>samples = 47<br/>value = [36, 11]<br/>class = No Diabetes>, fillcolor="#eda876"] ;
321 -> 322 ;
323 [label=<gini = 0.285<br/>samples = 58<br/>value = [48, 10]<br/>class = No Diabetes>, fillcolor="#ea9b62"] ;
321 -> 323 ;
324 [label=<Income &le; 5.5<br/>gini = 0.419<br/>samples = 314<br/>value = [220, 94]<br/>class = No Diabetes>, fillcolor="#f0b78e"] ;
318 -> 324 ;
325 [label=<Education &le; 2.5<br/>gini = 0.437<br/>samples = 273<br/>value = [185, 88]<br/>class = No Diabetes>, fillcolor="#f1bd97"] ;
324 -> 325 ;
326 [label=<Income &le; 2.5<br/>gini = 0.482<br/>samples = 94<br/>value = [56, 38]<br/>class = No Diabetes>, fillcolor="#f7d7bf"] ;
325 -> 326 ;
327 [label=<Education &le; 1.5<br/>gini = 0.5<br/>samples = 35<br/>value = [18, 17]<br/>class = No Diabetes>, fillcolor="#fef8f4"] ;
326 -> 327 ;
328 [label=<gini = 0.0<br/>samples = 1<br/>value = [0, 1]<br/>class = Diabetes>, fillcolor="#399de5"] ;
327 -> 328 ;
329 [label=<gini = 0.498<br/>samples = 34<br/>value = [18, 16]<br/>class = No Diabetes>, fillcolor="#fcf1e9"] ;
327 -> 329 ;
330 [label=<Education &le; 1.5<br/>gini = 0.458<br/>samples = 59<br/>value = [38, 21]<br/>class = No Diabetes>, fillcolor="#f3c7a6"] ;
326 -> 330 ;
331 [label=<gini = 0.0<br/>samples = 3<br/>value = [3, 0]<br/>class = No Diabetes>, fillcolor="#e58139"] ;
330 -> 331 ;
332 [label=<Income &le; 4.5<br/>gini = 0.469<br/>samples = 56<br/>value = [35, 21]<br/>class = No Diabetes>, fillcolor="#f5cdb0"] ;
330 -> 332 ;
333 [label=<Income &le; 3.5<br/>gini = 0.476<br/>samples = 41<br/>value = [25, 16]<br/>class = No Diabetes>, fillcolor="#f6d2b8"] ;
332 -> 333 ;
334 [label=<gini = 0.461<br/>samples = 25<br/>value = [16, 9]<br/>class = No Diabetes>, fillcolor="#f4c8a8"] ;
333 -> 334 ;
335 [label=<gini = 0.492<br/>samples = 16<br/>value = [9, 7]<br/>class = No Diabetes>, fillcolor="#f9e3d3"] ;
333 -> 335 ;
336 [label=<gini = 0.444<br/>samples = 15<br/>value = [10, 5]<br/>class = No Diabetes>, fillcolor="#f2c09c"] ;
332 -> 336 ;
337 [label=<Income &le; 3.5<br/>gini = 0.403<br/>samples = 179<br/>value = [129, 50]<br/>class = No Diabetes>, fillcolor="#efb286"] ;
325 -> 337 ;
338 [label=<Income &le; 2.5<br/>gini = 0.429<br/>samples = 109<br/>value = [75, 34]<br/>class = No Diabetes>, fillcolor="#f1ba93"] ;
337 -> 338 ;
339 [label=<gini = 0.4<br/>samples = 58<br/>value = [42, 16]<br/>class = No Diabetes>, fillcolor="#efb184"] ;
338 -> 339 ;
340 [label=<gini = 0.457<br/>samples = 51<br/>value = [33, 18]<br/>class = No Diabetes>, fillcolor="#f3c6a5"] ;
338 -> 340 ;
341 [label=<Income &le; 4.5<br/>gini = 0.353<br/>samples = 70<br/>value = [54, 16]<br/>class = No Diabetes>, fillcolor="#eda674"] ;
337 -> 341 ;
342 [label=<gini = 0.34<br/>samples = 46<br/>value = [36, 10]<br/>class = No Diabetes>, fillcolor="#eca470"] ;
341 -> 342 ;
343 [label=<gini = 0.375<br/>samples = 24<br/>value = [18, 6]<br/>class = No Diabetes>, fillcolor="#eeab7b"] ;
341 -> 343 ;
344 [label=<Income &le; 6.5<br/>gini = 0.25<br/>samples = 41<br/>value = [35, 6]<br/>class = No Diabetes>, fillcolor="#e9975b"] ;
324 -> 344 ;
345 [label=<Education &le; 2.5<br/>gini = 0.298<br/>samples = 22<br/>value = [18, 4]<br/>class = No Diabetes>, fillcolor="#eb9d65"] ;
344 -> 345 ;
346 [label=<gini = 0.444<br/>samples = 3<br/>value = [1, 2]<br/>class = Diabetes>, fillcolor="#9ccef2"] ;
345 -> 346 ;
347 [label=<gini = 0.188<br/>samples = 19<br/>value = [17, 2]<br/>class = No Diabetes>, fillcolor="#e89050"] ;
345 -> 347 ;
348 [label=<Education &le; 2.5<br/>gini = 0.188<br/>samples = 19<br/>value = [17, 2]<br/>class = No Diabetes>, fillcolor="#e89050"] ;
344 -> 348 ;
349 [label=<gini = 0.0<br/>samples = 8<br/>value = [8, 0]<br/>class = No Diabetes>, fillcolor="#e58139"] ;
348 -> 349 ;
350 [label=<Income &le; 7.5<br/>gini = 0.298<br/>samples = 11<br/>value = [9, 2]<br/>class = No Diabetes>, fillcolor="#eb9d65"] ;
348 -> 350 ;
351 [label=<gini = 0.278<br/>samples = 6<br/>value = [5, 1]<br/>class = No Diabetes>, fillcolor="#ea9a61"] ;
350 -> 351 ;
352 [label=<gini = 0.32<br/>samples = 5<br/>value = [4, 1]<br/>class = No Diabetes>, fillcolor="#eca06a"] ;
350 -> 352 ;
353 [label=<Income &le; 7.5<br/>gini = 0.298<br/>samples = 10317<br/>value = [8435, 1882]<br/>class = No Diabetes>, fillcolor="#eb9d65"] ;
271 -> 353 ;
354 [label=<GenHlth &le; 4.5<br/>gini = 0.306<br/>samples = 8487<br/>value = [6885, 1602]<br/>class = No Diabetes>, fillcolor="#eb9e67"] ;
353 -> 354 ;
355 [label=<Education &le; 5.5<br/>gini = 0.301<br/>samples = 6249<br/>value = [5097, 1152]<br/>class = No Diabetes>, fillcolor="#eb9d66"] ;
354 -> 355 ;
356 [label=<Income &le; 6.5<br/>gini = 0.306<br/>samples = 4779<br/>value = [3877, 902]<br/>class = No Diabetes>, fillcolor="#eb9e67"] ;
355 -> 356 ;
357 [label=<Education &le; 4.5<br/>gini = 0.301<br/>samples = 4113<br/>value = [3354, 759]<br/>class = No Diabetes>, fillcolor="#eb9e66"] ;
356 -> 357 ;
358 [label=<Income &le; 3.5<br/>gini = 0.311<br/>samples = 2281<br/>value = [1842, 439]<br/>class = No Diabetes>, fillcolor="#eb9f68"] ;
357 -> 358 ;
359 [label=<Income &le; 2.5<br/>gini = 0.298<br/>samples = 1005<br/>value = [822, 183]<br/>class = No Diabetes>, fillcolor="#eb9d65"] ;
358 -> 359 ;
360 [label=<Income &le; 1.5<br/>gini = 0.314<br/>samples = 610<br/>value = [491, 119]<br/>class = No Diabetes>, fillcolor="#eba069"] ;
359 -> 360 ;
361 [label=<gini = 0.303<br/>samples = 296<br/>value = [241, 55]<br/>class = No Diabetes>, fillcolor="#eb9e66"] ;
360 -> 361 ;
362 [label=<gini = 0.325<br/>samples = 314<br/>value = [250, 64]<br/>class = No Diabetes>, fillcolor="#eca16c"] ;
360 -> 362 ;
363 [label=<gini = 0.272<br/>samples = 395<br/>value = [331, 64]<br/>class = No Diabetes>, fillcolor="#ea995f"] ;
359 -> 363 ;
364 [label=<Income &le; 5.5<br/>gini = 0.321<br/>samples = 1276<br/>value = [1020.0, 256.0]<br/>class = No Diabetes>, fillcolor="#eca16b"] ;
358 -> 364 ;
365 [label=<Income &le; 4.5<br/>gini = 0.331<br/>samples = 861<br/>value = [681, 180]<br/>class = No Diabetes>, fillcolor="#eca26d"] ;
364 -> 365 ;
366 [label=<gini = 0.335<br/>samples = 441<br/>value = [347, 94]<br/>class = No Diabetes>, fillcolor="#eca36f"] ;
365 -> 366 ;
367 [label=<gini = 0.326<br/>samples = 420<br/>value = [334, 86]<br/>class = No Diabetes>, fillcolor="#eca16c"] ;
365 -> 367 ;
368 [label=<gini = 0.299<br/>samples = 415<br/>value = [339, 76]<br/>class = No Diabetes>, fillcolor="#eb9d65"] ;
364 -> 368 ;
369 [label=<Income &le; 2.5<br/>gini = 0.288<br/>samples = 1832<br/>value = [1512, 320]<br/>class = No Diabetes>, fillcolor="#eb9c63"] ;
357 -> 369 ;
370 [label=<Income &le; 1.5<br/>gini = 0.279<br/>samples = 460<br/>value = [383, 77]<br/>class = No Diabetes>, fillcolor="#ea9a61"] ;
369 -> 370 ;
371 [label=<gini = 0.292<br/>samples = 197<br/>value = [162, 35]<br/>class = No Diabetes>, fillcolor="#eb9c64"] ;
370 -> 371 ;
372 [label=<gini = 0.268<br/>samples = 263<br/>value = [221, 42]<br/>class = No Diabetes>, fillcolor="#ea995f"] ;
370 -> 372 ;
373 [label=<Income &le; 3.5<br/>gini = 0.291<br/>samples = 1372<br/>value = [1129, 243]<br/>class = No Diabetes>, fillcolor="#eb9c64"] ;
369 -> 373 ;
374 [label=<gini = 0.296<br/>samples = 293<br/>value = [240, 53]<br/>class = No Diabetes>, fillcolor="#eb9d65"] ;
373 -> 374 ;
375 [label=<Income &le; 4.5<br/>gini = 0.29<br/>samples = 1079<br/>value = [889, 190]<br/>class = No Diabetes>, fillcolor="#eb9c63"] ;
373 -> 375 ;
376 [label=<gini = 0.285<br/>samples = 320<br/>value = [265, 55]<br/>class = No Diabetes>, fillcolor="#ea9b62"] ;
375 -> 376 ;
377 [label=<Income &le; 5.5<br/>gini = 0.292<br/>samples = 759<br/>value = [624, 135]<br/>class = No Diabetes>, fillcolor="#eb9c64"] ;
375 -> 377 ;
378 [label=<gini = 0.296<br/>samples = 349<br/>value = [286, 63]<br/>class = No Diabetes>, fillcolor="#eb9d65"] ;
377 -> 378 ;
379 [label=<gini = 0.29<br/>samples = 410<br/>value = [338, 72]<br/>class = No Diabetes>, fillcolor="#eb9c63"] ;
377 -> 379 ;
380 [label=<Education &le; 4.5<br/>gini = 0.337<br/>samples = 666<br/>value = [523, 143]<br/>class = No Diabetes>, fillcolor="#eca36f"] ;
356 -> 380 ;
381 [label=<gini = 0.319<br/>samples = 331<br/>value = [265, 66]<br/>class = No Diabetes>, fillcolor="#eba06a"] ;
380 -> 381 ;
382 [label=<gini = 0.354<br/>samples = 335<br/>value = [258, 77]<br/>class = No Diabetes>, fillcolor="#eda774"] ;
380 -> 382 ;
383 [label=<Income &le; 3.5<br/>gini = 0.282<br/>samples = 1470<br/>value = [1220, 250]<br/>class = No Diabetes>, fillcolor="#ea9b62"] ;
355 -> 383 ;
384 [label=<Income &le; 2.5<br/>gini = 0.32<br/>samples = 335<br/>value = [268, 67]<br/>class = No Diabetes>, fillcolor="#eca06a"] ;
383 -> 384 ;
385 [label=<Income &le; 1.5<br/>gini = 0.309<br/>samples = 215<br/>value = [174, 41]<br/>class = No Diabetes>, fillcolor="#eb9f68"] ;
384 -> 385 ;
386 [label=<gini = 0.322<br/>samples = 99<br/>value = [79, 20]<br/>class = No Diabetes>, fillcolor="#eca16b"] ;
385 -> 386 ;
387 [label=<gini = 0.297<br/>samples = 116<br/>value = [95, 21]<br/>class = No Diabetes>, fillcolor="#eb9d65"] ;
385 -> 387 ;
388 [label=<gini = 0.339<br/>samples = 120<br/>value = [94, 26]<br/>class = No Diabetes>, fillcolor="#eca470"] ;
384 -> 388 ;
389 [label=<Income &le; 6.5<br/>gini = 0.27<br/>samples = 1135<br/>value = [952, 183]<br/>class = No Diabetes>, fillcolor="#ea995f"] ;
383 -> 389 ;
390 [label=<Income &le; 4.5<br/>gini = 0.26<br/>samples = 715<br/>value = [605, 110]<br/>class = No Diabetes>, fillcolor="#ea985d"] ;
389 -> 390 ;
391 [label=<gini = 0.276<br/>samples = 163<br/>value = [136.0, 27.0]<br/>class = No Diabetes>, fillcolor="#ea9a60"] ;
390 -> 391 ;
392 [label=<Income &le; 5.5<br/>gini = 0.256<br/>samples = 552<br/>value = [469, 83]<br/>class = No Diabetes>, fillcolor="#ea975c"] ;
390 -> 392 ;
393 [label=<gini = 0.25<br/>samples = 225<br/>value = [192, 33]<br/>class = No Diabetes>, fillcolor="#e9975b"] ;
392 -> 393 ;
394 [label=<gini = 0.259<br/>samples = 327<br/>value = [277, 50]<br/>class = No Diabetes>, fillcolor="#ea985d"] ;
392 -> 394 ;
395 [label=<gini = 0.287<br/>samples = 420<br/>value = [347, 73]<br/>class = No Diabetes>, fillcolor="#ea9c63"] ;
389 -> 395 ;
396 [label=<Education &le; 5.5<br/>gini = 0.321<br/>samples = 2238<br/>value = [1788, 450]<br/>class = No Diabetes>, fillcolor="#eca16b"] ;
354 -> 396 ;
397 [label=<Income &le; 1.5<br/>gini = 0.311<br/>samples = 1744<br/>value = [1408, 336]<br/>class = No Diabetes>, fillcolor="#eb9f68"] ;
396 -> 397 ;
398 [label=<Education &le; 4.5<br/>gini = 0.269<br/>samples = 250<br/>value = [210, 40]<br/>class = No Diabetes>, fillcolor="#ea995f"] ;
397 -> 398 ;
399 [label=<gini = 0.211<br/>samples = 125<br/>value = [110, 15]<br/>class = No Diabetes>, fillcolor="#e99254"] ;
398 -> 399 ;
400 [label=<gini = 0.32<br/>samples = 125<br/>value = [100, 25]<br/>class = No Diabetes>, fillcolor="#eca06a"] ;
398 -> 400 ;
401 [label=<Income &le; 2.5<br/>gini = 0.318<br/>samples = 1494<br/>value = [1198, 296]<br/>class = No Diabetes>, fillcolor="#eba06a"] ;
397 -> 401 ;
402 [label=<Education &le; 4.5<br/>gini = 0.383<br/>samples = 287<br/>value = [213, 74]<br/>class = No Diabetes>, fillcolor="#eead7e"] ;
401 -> 402 ;
403 [label=<gini = 0.386<br/>samples = 153<br/>value = [113, 40]<br/>class = No Diabetes>, fillcolor="#eeae7f"] ;
402 -> 403 ;
404 [label=<gini = 0.379<br/>samples = 134<br/>value = [100, 34]<br/>class = No Diabetes>, fillcolor="#eeac7c"] ;
402 -> 404 ;
405 [label=<Education &le; 4.5<br/>gini = 0.3<br/>samples = 1207<br/>value = [985, 222]<br/>class = No Diabetes>, fillcolor="#eb9d66"] ;
401 -> 405 ;
406 [label=<Income &le; 3.5<br/>gini = 0.322<br/>samples = 650<br/>value = [519, 131]<br/>class = No Diabetes>, fillcolor="#eca16b"] ;
405 -> 406 ;
407 [label=<gini = 0.298<br/>samples = 181<br/>value = [148, 33]<br/>class = No Diabetes>, fillcolor="#eb9d65"] ;
406 -> 407 ;
408 [label=<Income &le; 6.5<br/>gini = 0.331<br/>samples = 469<br/>value = [371, 98]<br/>class = No Diabetes>, fillcolor="#eca26d"] ;
406 -> 408 ;
409 [label=<Income &le; 5.5<br/>gini = 0.336<br/>samples = 389<br/>value = [306, 83]<br/>class = No Diabetes>, fillcolor="#eca36f"] ;
408 -> 409 ;
410 [label=<Income &le; 4.5<br/>gini = 0.328<br/>samples = 266<br/>value = [211, 55]<br/>class = No Diabetes>, fillcolor="#eca26d"] ;
409 -> 410 ;
411 [label=<gini = 0.325<br/>samples = 147<br/>value = [117, 30]<br/>class = No Diabetes>, fillcolor="#eca16c"] ;
410 -> 411 ;
412 [label=<gini = 0.332<br/>samples = 119<br/>value = [94, 25]<br/>class = No Diabetes>, fillcolor="#eca36e"] ;
410 -> 412 ;
413 [label=<gini = 0.352<br/>samples = 123<br/>value = [95, 28]<br/>class = No Diabetes>, fillcolor="#eda673"] ;
409 -> 413 ;
414 [label=<gini = 0.305<br/>samples = 80<br/>value = [65, 15]<br/>class = No Diabetes>, fillcolor="#eb9e67"] ;
408 -> 414 ;
415 [label=<Income &le; 3.5<br/>gini = 0.273<br/>samples = 557<br/>value = [466, 91]<br/>class = No Diabetes>, fillcolor="#ea9a60"] ;
405 -> 415 ;
416 [label=<gini = 0.235<br/>samples = 125<br/>value = [108, 17]<br/>class = No Diabetes>, fillcolor="#e99558"] ;
415 -> 416 ;
417 [label=<Income &le; 4.5<br/>gini = 0.284<br/>samples = 432<br/>value = [358, 74]<br/>class = No Diabetes>, fillcolor="#ea9b62"] ;
415 -> 417 ;
418 [label=<gini = 0.335<br/>samples = 108<br/>value = [85, 23]<br/>class = No Diabetes>, fillcolor="#eca36f"] ;
417 -> 418 ;
419 [label=<Income &le; 6.5<br/>gini = 0.265<br/>samples = 324<br/>value = [273, 51]<br/>class = No Diabetes>, fillcolor="#ea995e"] ;
417 -> 419 ;
420 [label=<Income &le; 5.5<br/>gini = 0.246<br/>samples = 230<br/>value = [197, 33]<br/>class = No Diabetes>, fillcolor="#e9965a"] ;
419 -> 420 ;
421 [label=<gini = 0.224<br/>samples = 109<br/>value = [95, 14]<br/>class = No Diabetes>, fillcolor="#e99456"] ;
420 -> 421 ;
422 [label=<gini = 0.265<br/>samples = 121<br/>value = [102, 19]<br/>class = No Diabetes>, fillcolor="#ea985e"] ;
420 -> 422 ;
423 [label=<gini = 0.31<br/>samples = 94<br/>value = [76, 18]<br/>class = No Diabetes>, fillcolor="#eb9f68"] ;
419 -> 423 ;
424 [label=<Income &le; 3.5<br/>gini = 0.355<br/>samples = 494<br/>value = [380, 114]<br/>class = No Diabetes>, fillcolor="#eda774"] ;
396 -> 424 ;
425 [label=<Income &le; 2.5<br/>gini = 0.422<br/>samples = 162<br/>value = [113, 49]<br/>class = No Diabetes>, fillcolor="#f0b88f"] ;
424 -> 425 ;
426 [label=<Income &le; 1.5<br/>gini = 0.37<br/>samples = 102<br/>value = [77, 25]<br/>class = No Diabetes>, fillcolor="#edaa79"] ;
425 -> 426 ;
427 [label=<gini = 0.37<br/>samples = 49<br/>value = [37, 12]<br/>class = No Diabetes>, fillcolor="#edaa79"] ;
426 -> 427 ;
428 [label=<gini = 0.37<br/>samples = 53<br/>value = [40, 13]<br/>class = No Diabetes>, fillcolor="#edaa79"] ;
426 -> 428 ;
429 [label=<gini = 0.48<br/>samples = 60<br/>value = [36, 24]<br/>class = No Diabetes>, fillcolor="#f6d5bd"] ;
425 -> 429 ;
430 [label=<Income &le; 6.5<br/>gini = 0.315<br/>samples = 332<br/>value = [267, 65]<br/>class = No Diabetes>, fillcolor="#eba069"] ;
424 -> 430 ;
431 [label=<Income &le; 4.5<br/>gini = 0.305<br/>samples = 234<br/>value = [190, 44]<br/>class = No Diabetes>, fillcolor="#eb9e67"] ;
430 -> 431 ;
432 [label=<gini = 0.34<br/>samples = 69<br/>value = [54, 15]<br/>class = No Diabetes>, fillcolor="#eca470"] ;
431 -> 432 ;
433 [label=<Income &le; 5.5<br/>gini = 0.29<br/>samples = 165<br/>value = [136, 29]<br/>class = No Diabetes>, fillcolor="#eb9c63"] ;
431 -> 433 ;
434 [label=<gini = 0.293<br/>samples = 73<br/>value = [60, 13]<br/>class = No Diabetes>, fillcolor="#eb9c64"] ;
433 -> 434 ;
435 [label=<gini = 0.287<br/>samples = 92<br/>value = [76, 16]<br/>class = No Diabetes>, fillcolor="#ea9c63"] ;
433 -> 435 ;
436 [label=<gini = 0.337<br/>samples = 98<br/>value = [77, 21]<br/>class = No Diabetes>, fillcolor="#eca36f"] ;
430 -> 436 ;
437 [label=<Education &le; 5.5<br/>gini = 0.259<br/>samples = 1830<br/>value = [1550, 280]<br/>class = No Diabetes>, fillcolor="#ea985d"] ;
353 -> 437 ;
438 [label=<GenHlth &le; 4.5<br/>gini = 0.272<br/>samples = 839<br/>value = [703, 136]<br/>class = No Diabetes>, fillcolor="#ea995f"] ;
437 -> 438 ;
439 [label=<Education &le; 4.5<br/>gini = 0.263<br/>samples = 688<br/>value = [581, 107]<br/>class = No Diabetes>, fillcolor="#ea985d"] ;
438 -> 439 ;
440 [label=<gini = 0.274<br/>samples = 263<br/>value = [220, 43]<br/>class = No Diabetes>, fillcolor="#ea9a60"] ;
439 -> 440 ;
441 [label=<gini = 0.256<br/>samples = 425<br/>value = [361.0, 64.0]<br/>class = No Diabetes>, fillcolor="#ea975c"] ;
439 -> 441 ;
442 [label=<Education &le; 4.5<br/>gini = 0.31<br/>samples = 151<br/>value = [122, 29]<br/>class = No Diabetes>, fillcolor="#eb9f68"] ;
438 -> 442 ;
443 [label=<gini = 0.298<br/>samples = 55<br/>value = [45, 10]<br/>class = No Diabetes>, fillcolor="#eb9d65"] ;
442 -> 443 ;
444 [label=<gini = 0.317<br/>samples = 96<br/>value = [77, 19]<br/>class = No Diabetes>, fillcolor="#eba06a"] ;
442 -> 444 ;
445 [label=<GenHlth &le; 4.5<br/>gini = 0.248<br/>samples = 991<br/>value = [847, 144]<br/>class = No Diabetes>, fillcolor="#e9965b"] ;
437 -> 445 ;
446 [label=<gini = 0.249<br/>samples = 823<br/>value = [703.0, 120.0]<br/>class = No Diabetes>, fillcolor="#e9975b"] ;
445 -> 446 ;
447 [label=<gini = 0.245<br/>samples = 168<br/>value = [144, 24]<br/>class = No Diabetes>, fillcolor="#e9965a"] ;
445 -> 447 ;
448 [label=<GenHlth &le; 3.5<br/>gini = 0.37<br/>samples = 86903<br/>value = [65633, 21270]<br/>class = No Diabetes>, fillcolor="#edaa79"] ;
0 -> 448 [labeldistance=2.5, labelangle=-45, headlabel="False"] ;
449 [label=<GenHlth &le; 2.5<br/>gini = 0.305<br/>samples = 63814<br/>value = [51828, 11986]<br/>class = No Diabetes>, fillcolor="#eb9e67"] ;
448 -> 449 ;
450 [label=<Income &le; 4.5<br/>gini = 0.216<br/>samples = 32730<br/>value = [28692, 4038]<br/>class = No Diabetes>, fillcolor="#e99355"] ;
449 -> 450 ;
451 [label=<Education &le; 4.5<br/>gini = 0.296<br/>samples = 5149<br/>value = [4220, 929]<br/>class = No Diabetes>, fillcolor="#eb9d65"] ;
450 -> 451 ;
452 [label=<Income &le; 2.5<br/>gini = 0.314<br/>samples = 2718<br/>value = [2188, 530]<br/>class = No Diabetes>, fillcolor="#eba069"] ;
451 -> 452 ;
453 [label=<Education &le; 3.5<br/>gini = 0.343<br/>samples = 879<br/>value = [686, 193]<br/>class = No Diabetes>, fillcolor="#eca471"] ;
452 -> 453 ;
454 [label=<Income &le; 1.5<br/>gini = 0.376<br/>samples = 263<br/>value = [197, 66]<br/>class = No Diabetes>, fillcolor="#eeab7b"] ;
453 -> 454 ;
455 [label=<Education &le; 2.5<br/>gini = 0.344<br/>samples = 136<br/>value = [106, 30]<br/>class = No Diabetes>, fillcolor="#eca571"] ;
454 -> 455 ;
456 [label=<Education &le; 1.5<br/>gini = 0.386<br/>samples = 46<br/>value = [34, 12]<br/>class = No Diabetes>, fillcolor="#eead7f"] ;
455 -> 456 ;
457 [label=<gini = 0.0<br/>samples = 2<br/>value = [2, 0]<br/>class = No Diabetes>, fillcolor="#e58139"] ;
456 -> 457 ;
458 [label=<GenHlth &le; 1.5<br/>gini = 0.397<br/>samples = 44<br/>value = [32, 12]<br/>class = No Diabetes>, fillcolor="#efb083"] ;
456 -> 458 ;
459 [label=<gini = 0.444<br/>samples = 15<br/>value = [10, 5]<br/>class = No Diabetes>, fillcolor="#f2c09c"] ;
458 -> 459 ;
460 [label=<gini = 0.366<br/>samples = 29<br/>value = [22, 7]<br/>class = No Diabetes>, fillcolor="#eda978"] ;
458 -> 460 ;
461 [label=<GenHlth &le; 1.5<br/>gini = 0.32<br/>samples = 90<br/>value = [72, 18]<br/>class = No Diabetes>, fillcolor="#eca06a"] ;
455 -> 461 ;
462 [label=<gini = 0.302<br/>samples = 27<br/>value = [22, 5]<br/>class = No Diabetes>, fillcolor="#eb9e66"] ;
461 -> 462 ;
463 [label=<gini = 0.328<br/>samples = 63<br/>value = [50, 13]<br/>class = No Diabetes>, fillcolor="#eca26c"] ;
461 -> 463 ;
464 [label=<Education &le; 2.5<br/>gini = 0.406<br/>samples = 127<br/>value = [91, 36]<br/>class = No Diabetes>, fillcolor="#efb387"] ;
454 -> 464 ;
465 [label=<Education &le; 1.5<br/>gini = 0.32<br/>samples = 25<br/>value = [20, 5]<br/>class = No Diabetes>, fillcolor="#eca06a"] ;
464 -> 465 ;
466 [label=<gini = 0.0<br/>samples = 1<br/>value = [1, 0]<br/>class = No Diabetes>, fillcolor="#e58139"] ;
465 -> 466 ;
467 [label=<GenHlth &le; 1.5<br/>gini = 0.33<br/>samples = 24<br/>value = [19, 5]<br/>class = No Diabetes>, fillcolor="#eca26d"] ;
465 -> 467 ;
468 [label=<gini = 0.278<br/>samples = 6<br/>value = [5, 1]<br/>class = No Diabetes>, fillcolor="#ea9a61"] ;
467 -> 468 ;
469 [label=<gini = 0.346<br/>samples = 18<br/>value = [14, 4]<br/>class = No Diabetes>, fillcolor="#eca572"] ;
467 -> 469 ;
470 [label=<GenHlth &le; 1.5<br/>gini = 0.423<br/>samples = 102<br/>value = [71.0, 31.0]<br/>class = No Diabetes>, fillcolor="#f0b88f"] ;
464 -> 470 ;
471 [label=<gini = 0.404<br/>samples = 32<br/>value = [23, 9]<br/>class = No Diabetes>, fillcolor="#efb286"] ;
470 -> 471 ;
472 [label=<gini = 0.431<br/>samples = 70<br/>value = [48, 22]<br/>class = No Diabetes>, fillcolor="#f1bb94"] ;
470 -> 472 ;
473 [label=<Income &le; 1.5<br/>gini = 0.327<br/>samples = 616<br/>value = [489.0, 127.0]<br/>class = No Diabetes>, fillcolor="#eca26c"] ;
453 -> 473 ;
474 [label=<GenHlth &le; 1.5<br/>gini = 0.359<br/>samples = 226<br/>value = [173, 53]<br/>class = No Diabetes>, fillcolor="#eda876"] ;
473 -> 474 ;
475 [label=<gini = 0.384<br/>samples = 54<br/>value = [40, 14]<br/>class = No Diabetes>, fillcolor="#eead7e"] ;
474 -> 475 ;
476 [label=<gini = 0.351<br/>samples = 172<br/>value = [133, 39]<br/>class = No Diabetes>, fillcolor="#eda673"] ;
474 -> 476 ;
477 [label=<GenHlth &le; 1.5<br/>gini = 0.307<br/>samples = 390<br/>value = [316, 74]<br/>class = No Diabetes>, fillcolor="#eb9f67"] ;
473 -> 477 ;
478 [label=<gini = 0.299<br/>samples = 82<br/>value = [67, 15]<br/>class = No Diabetes>, fillcolor="#eb9d65"] ;
477 -> 478 ;
479 [label=<gini = 0.31<br/>samples = 308<br/>value = [249, 59]<br/>class = No Diabetes>, fillcolor="#eb9f68"] ;
477 -> 479 ;
480 [label=<Income &le; 3.5<br/>gini = 0.299<br/>samples = 1839<br/>value = [1502, 337]<br/>class = No Diabetes>, fillcolor="#eb9d65"] ;
452 -> 480 ;
481 [label=<Education &le; 3.5<br/>gini = 0.308<br/>samples = 785<br/>value = [636, 149]<br/>class = No Diabetes>, fillcolor="#eb9f67"] ;
480 -> 481 ;
482 [label=<GenHlth &le; 1.5<br/>gini = 0.351<br/>samples = 176<br/>value = [136, 40]<br/>class = No Diabetes>, fillcolor="#eda673"] ;
481 -> 482 ;
483 [label=<Education &le; 2.5<br/>gini = 0.437<br/>samples = 31<br/>value = [21, 10]<br/>class = No Diabetes>, fillcolor="#f1bd97"] ;
482 -> 483 ;
484 [label=<gini = 0.397<br/>samples = 11<br/>value = [8, 3]<br/>class = No Diabetes>, fillcolor="#efb083"] ;
483 -> 484 ;
485 [label=<gini = 0.455<br/>samples = 20<br/>value = [13, 7]<br/>class = No Diabetes>, fillcolor="#f3c5a4"] ;
483 -> 485 ;
486 [label=<Education &le; 2.5<br/>gini = 0.328<br/>samples = 145<br/>value = [115, 30]<br/>class = No Diabetes>, fillcolor="#eca26d"] ;
482 -> 486 ;
487 [label=<gini = 0.285<br/>samples = 29<br/>value = [24, 5]<br/>class = No Diabetes>, fillcolor="#ea9b62"] ;
486 -> 487 ;
488 [label=<gini = 0.338<br/>samples = 116<br/>value = [91, 25]<br/>class = No Diabetes>, fillcolor="#eca46f"] ;
486 -> 488 ;
489 [label=<GenHlth &le; 1.5<br/>gini = 0.294<br/>samples = 609<br/>value = [500, 109]<br/>class = No Diabetes>, fillcolor="#eb9c64"] ;
481 -> 489 ;
490 [label=<gini = 0.253<br/>samples = 128<br/>value = [109, 19]<br/>class = No Diabetes>, fillcolor="#ea975c"] ;
489 -> 490 ;
491 [label=<gini = 0.304<br/>samples = 481<br/>value = [391, 90]<br/>class = No Diabetes>, fillcolor="#eb9e67"] ;
489 -> 491 ;
492 [label=<Education &le; 3.5<br/>gini = 0.293<br/>samples = 1054<br/>value = [866, 188]<br/>class = No Diabetes>, fillcolor="#eb9c64"] ;
480 -> 492 ;
493 [label=<GenHlth &le; 1.5<br/>gini = 0.256<br/>samples = 159<br/>value = [135, 24]<br/>class = No Diabetes>, fillcolor="#ea975c"] ;
492 -> 493 ;
494 [label=<Education &le; 2.5<br/>gini = 0.355<br/>samples = 39<br/>value = [30, 9]<br/>class = No Diabetes>, fillcolor="#eda774"] ;
493 -> 494 ;
495 [label=<gini = 0.298<br/>samples = 11<br/>value = [9, 2]<br/>class = No Diabetes>, fillcolor="#eb9d65"] ;
494 -> 495 ;
496 [label=<gini = 0.375<br/>samples = 28<br/>value = [21, 7]<br/>class = No Diabetes>, fillcolor="#eeab7b"] ;
494 -> 496 ;
497 [label=<Education &le; 2.5<br/>gini = 0.219<br/>samples = 120<br/>value = [105, 15]<br/>class = No Diabetes>, fillcolor="#e99355"] ;
493 -> 497 ;
498 [label=<gini = 0.245<br/>samples = 28<br/>value = [24, 4]<br/>class = No Diabetes>, fillcolor="#e9965a"] ;
497 -> 498 ;
499 [label=<gini = 0.211<br/>samples = 92<br/>value = [81, 11]<br/>class = No Diabetes>, fillcolor="#e99254"] ;
497 -> 499 ;
500 [label=<GenHlth &le; 1.5<br/>gini = 0.299<br/>samples = 895<br/>value = [731, 164]<br/>class = No Diabetes>, fillcolor="#eb9d65"] ;
492 -> 500 ;
501 [label=<gini = 0.26<br/>samples = 150<br/>value = [127, 23]<br/>class = No Diabetes>, fillcolor="#ea985d"] ;
500 -> 501 ;
502 [label=<gini = 0.307<br/>samples = 745<br/>value = [604, 141]<br/>class = No Diabetes>, fillcolor="#eb9e67"] ;
500 -> 502 ;
503 [label=<GenHlth &le; 1.5<br/>gini = 0.274<br/>samples = 2431<br/>value = [2032, 399]<br/>class = No Diabetes>, fillcolor="#ea9a60"] ;
451 -> 503 ;
504 [label=<Income &le; 3.5<br/>gini = 0.191<br/>samples = 543<br/>value = [485, 58]<br/>class = No Diabetes>, fillcolor="#e89051"] ;
503 -> 504 ;
505 [label=<Education &le; 5.5<br/>gini = 0.167<br/>samples = 293<br/>value = [266, 27]<br/>class = No Diabetes>, fillcolor="#e88e4d"] ;
504 -> 505 ;
506 [label=<Income &le; 1.5<br/>gini = 0.184<br/>samples = 176<br/>value = [158, 18]<br/>class = No Diabetes>, fillcolor="#e88f50"] ;
505 -> 506 ;
507 [label=<gini = 0.264<br/>samples = 32<br/>value = [27, 5]<br/>class = No Diabetes>, fillcolor="#ea985e"] ;
506 -> 507 ;
508 [label=<Income &le; 2.5<br/>gini = 0.164<br/>samples = 144<br/>value = [131, 13]<br/>class = No Diabetes>, fillcolor="#e88e4d"] ;
506 -> 508 ;
509 [label=<gini = 0.145<br/>samples = 51<br/>value = [47, 4]<br/>class = No Diabetes>, fillcolor="#e78c4a"] ;
508 -> 509 ;
510 [label=<gini = 0.175<br/>samples = 93<br/>value = [84, 9]<br/>class = No Diabetes>, fillcolor="#e88e4e"] ;
508 -> 510 ;
511 [label=<Income &le; 1.5<br/>gini = 0.142<br/>samples = 117<br/>value = [108, 9]<br/>class = No Diabetes>, fillcolor="#e78c49"] ;
505 -> 511 ;
512 [label=<gini = 0.0<br/>samples = 21<br/>value = [21, 0]<br/>class = No Diabetes>, fillcolor="#e58139"] ;
511 -> 512 ;
513 [label=<Income &le; 2.5<br/>gini = 0.17<br/>samples = 96<br/>value = [87, 9]<br/>class = No Diabetes>, fillcolor="#e88e4d"] ;
511 -> 513 ;
514 [label=<gini = 0.198<br/>samples = 36<br/>value = [32, 4]<br/>class = No Diabetes>, fillcolor="#e89152"] ;
513 -> 514 ;
515 [label=<gini = 0.153<br/>samples = 60<br/>value = [55, 5]<br/>class = No Diabetes>, fillcolor="#e78c4b"] ;
513 -> 515 ;
516 [label=<Education &le; 5.5<br/>gini = 0.217<br/>samples = 250<br/>value = [219, 31]<br/>class = No Diabetes>, fillcolor="#e99355"] ;
504 -> 516 ;
517 [label=<gini = 0.232<br/>samples = 149<br/>value = [129, 20]<br/>class = No Diabetes>, fillcolor="#e99558"] ;
516 -> 517 ;
518 [label=<gini = 0.194<br/>samples = 101<br/>value = [90, 11]<br/>class = No Diabetes>, fillcolor="#e89051"] ;
516 -> 518 ;
519 [label=<Income &le; 2.5<br/>gini = 0.296<br/>samples = 1888<br/>value = [1547, 341]<br/>class = No Diabetes>, fillcolor="#eb9d65"] ;
503 -> 519 ;
520 [label=<Income &le; 1.5<br/>gini = 0.33<br/>samples = 479<br/>value = [379, 100]<br/>class = No Diabetes>, fillcolor="#eca26d"] ;
519 -> 520 ;
521 [label=<Education &le; 5.5<br/>gini = 0.313<br/>samples = 180<br/>value = [145, 35]<br/>class = No Diabetes>, fillcolor="#eb9f69"] ;
520 -> 521 ;
522 [label=<gini = 0.315<br/>samples = 107<br/>value = [86, 21]<br/>class = No Diabetes>, fillcolor="#eba069"] ;
521 -> 522 ;
523 [label=<gini = 0.31<br/>samples = 73<br/>value = [59, 14]<br/>class = No Diabetes>, fillcolor="#eb9f68"] ;
521 -> 523 ;
524 [label=<Education &le; 5.5<br/>gini = 0.34<br/>samples = 299<br/>value = [234, 65]<br/>class = No Diabetes>, fillcolor="#eca470"] ;
520 -> 524 ;
525 [label=<gini = 0.325<br/>samples = 201<br/>value = [160, 41]<br/>class = No Diabetes>, fillcolor="#eca16c"] ;
524 -> 525 ;
526 [label=<gini = 0.37<br/>samples = 98<br/>value = [74, 24]<br/>class = No Diabetes>, fillcolor="#edaa79"] ;
524 -> 526 ;
527 [label=<Education &le; 5.5<br/>gini = 0.284<br/>samples = 1409<br/>value = [1168, 241]<br/>class = No Diabetes>, fillcolor="#ea9b62"] ;
519 -> 527 ;
528 [label=<Income &le; 3.5<br/>gini = 0.291<br/>samples = 921<br/>value = [758, 163]<br/>class = No Diabetes>, fillcolor="#eb9c64"] ;
527 -> 528 ;
529 [label=<gini = 0.296<br/>samples = 343<br/>value = [281, 62]<br/>class = No Diabetes>, fillcolor="#eb9d65"] ;
528 -> 529 ;
530 [label=<gini = 0.288<br/>samples = 578<br/>value = [477.0, 101.0]<br/>class = No Diabetes>, fillcolor="#eb9c63"] ;
528 -> 530 ;
531 [label=<Income &le; 3.5<br/>gini = 0.269<br/>samples = 488<br/>value = [410, 78]<br/>class = No Diabetes>, fillcolor="#ea995f"] ;
527 -> 531 ;
532 [label=<gini = 0.231<br/>samples = 173<br/>value = [150.0, 23.0]<br/>class = No Diabetes>, fillcolor="#e99457"] ;
531 -> 532 ;
533 [label=<gini = 0.288<br/>samples = 315<br/>value = [260, 55]<br/>class = No Diabetes>, fillcolor="#ea9c63"] ;
531 -> 533 ;
534 [label=<GenHlth &le; 1.5<br/>gini = 0.2<br/>samples = 27581<br/>value = [24472, 3109]<br/>class = No Diabetes>, fillcolor="#e89152"] ;
450 -> 534 ;
535 [label=<Income &le; 7.5<br/>gini = 0.128<br/>samples = 6186<br/>value = [5761.0, 425.0]<br/>class = No Diabetes>, fillcolor="#e78a48"] ;
534 -> 535 ;
536 [label=<Education &le; 3.5<br/>gini = 0.158<br/>samples = 2942<br/>value = [2688, 254]<br/>class = No Diabetes>, fillcolor="#e78d4c"] ;
535 -> 536 ;
537 [label=<Income &le; 6.5<br/>gini = 0.291<br/>samples = 85<br/>value = [70.0, 15.0]<br/>class = No Diabetes>, fillcolor="#eb9c63"] ;
536 -> 537 ;
538 [label=<Education &le; 2.5<br/>gini = 0.313<br/>samples = 67<br/>value = [54, 13]<br/>class = No Diabetes>, fillcolor="#eb9f69"] ;
537 -> 538 ;
539 [label=<Income &le; 5.5<br/>gini = 0.227<br/>samples = 23<br/>value = [20, 3]<br/>class = No Diabetes>, fillcolor="#e99457"] ;
538 -> 539 ;
540 [label=<gini = 0.32<br/>samples = 15<br/>value = [12, 3]<br/>class = No Diabetes>, fillcolor="#eca06a"] ;
539 -> 540 ;
541 [label=<gini = 0.0<br/>samples = 8<br/>value = [8, 0]<br/>class = No Diabetes>, fillcolor="#e58139"] ;
539 -> 541 ;
542 [label=<Income &le; 5.5<br/>gini = 0.351<br/>samples = 44<br/>value = [34, 10]<br/>class = No Diabetes>, fillcolor="#eda673"] ;
538 -> 542 ;
543 [label=<gini = 0.33<br/>samples = 24<br/>value = [19, 5]<br/>class = No Diabetes>, fillcolor="#eca26d"] ;
542 -> 543 ;
544 [label=<gini = 0.375<br/>samples = 20<br/>value = [15, 5]<br/>class = No Diabetes>, fillcolor="#eeab7b"] ;
542 -> 544 ;
545 [label=<Education &le; 1.5<br/>gini = 0.198<br/>samples = 18<br/>value = [16, 2]<br/>class = No Diabetes>, fillcolor="#e89152"] ;
537 -> 545 ;
546 [label=<gini = 0.0<br/>samples = 2<br/>value = [2, 0]<br/>class = No Diabetes>, fillcolor="#e58139"] ;
545 -> 546 ;
547 [label=<Education &le; 2.5<br/>gini = 0.219<br/>samples = 16<br/>value = [14, 2]<br/>class = No Diabetes>, fillcolor="#e99355"] ;
545 -> 547 ;
548 [label=<gini = 0.375<br/>samples = 4<br/>value = [3, 1]<br/>class = No Diabetes>, fillcolor="#eeab7b"] ;
547 -> 548 ;
549 [label=<gini = 0.153<br/>samples = 12<br/>value = [11, 1]<br/>class = No Diabetes>, fillcolor="#e78c4b"] ;
547 -> 549 ;
550 [label=<Income &le; 6.5<br/>gini = 0.153<br/>samples = 2857<br/>value = [2618, 239]<br/>class = No Diabetes>, fillcolor="#e78d4b"] ;
536 -> 550 ;
551 [label=<Education &le; 4.5<br/>gini = 0.163<br/>samples = 1588<br/>value = [1446, 142]<br/>class = No Diabetes>, fillcolor="#e88d4c"] ;
550 -> 551 ;
552 [label=<Income &le; 5.5<br/>gini = 0.138<br/>samples = 471<br/>value = [436, 35]<br/>class = No Diabetes>, fillcolor="#e78b49"] ;
551 -> 552 ;
553 [label=<gini = 0.12<br/>samples = 203<br/>value = [190.0, 13.0]<br/>class = No Diabetes>, fillcolor="#e78a47"] ;
552 -> 553 ;
554 [label=<gini = 0.151<br/>samples = 268<br/>value = [246, 22]<br/>class = No Diabetes>, fillcolor="#e78c4b"] ;
552 -> 554 ;
555 [label=<Income &le; 5.5<br/>gini = 0.173<br/>samples = 1117<br/>value = [1010, 107]<br/>class = No Diabetes>, fillcolor="#e88e4e"] ;
551 -> 555 ;
556 [label=<Education &le; 5.5<br/>gini = 0.189<br/>samples = 398<br/>value = [356, 42]<br/>class = No Diabetes>, fillcolor="#e89050"] ;
555 -> 556 ;
557 [label=<gini = 0.166<br/>samples = 208<br/>value = [189, 19]<br/>class = No Diabetes>, fillcolor="#e88e4d"] ;
556 -> 557 ;
558 [label=<gini = 0.213<br/>samples = 190<br/>value = [167, 23]<br/>class = No Diabetes>, fillcolor="#e99254"] ;
556 -> 558 ;
559 [label=<Education &le; 5.5<br/>gini = 0.164<br/>samples = 719<br/>value = [654, 65]<br/>class = No Diabetes>, fillcolor="#e88e4d"] ;
555 -> 559 ;
560 [label=<gini = 0.191<br/>samples = 308<br/>value = [275, 33]<br/>class = No Diabetes>, fillcolor="#e89051"] ;
559 -> 560 ;
561 [label=<gini = 0.144<br/>samples = 411<br/>value = [379, 32]<br/>class = No Diabetes>, fillcolor="#e78c4a"] ;
559 -> 561 ;
562 [label=<Education &le; 5.5<br/>gini = 0.141<br/>samples = 1269<br/>value = [1172, 97]<br/>class = No Diabetes>, fillcolor="#e78b49"] ;
550 -> 562 ;
563 [label=<Education &le; 4.5<br/>gini = 0.146<br/>samples = 582<br/>value = [536, 46]<br/>class = No Diabetes>, fillcolor="#e78c4a"] ;
562 -> 563 ;
564 [label=<gini = 0.143<br/>samples = 220<br/>value = [203, 17]<br/>class = No Diabetes>, fillcolor="#e78c4a"] ;
563 -> 564 ;
565 [label=<gini = 0.147<br/>samples = 362<br/>value = [333, 29]<br/>class = No Diabetes>, fillcolor="#e78c4a"] ;
563 -> 565 ;
566 [label=<gini = 0.137<br/>samples = 687<br/>value = [636.0, 51.0]<br/>class = No Diabetes>, fillcolor="#e78b49"] ;
562 -> 566 ;
567 [label=<Education &le; 2.5<br/>gini = 0.1<br/>samples = 3244<br/>value = [3073, 171]<br/>class = No Diabetes>, fillcolor="#e68844"] ;
535 -> 567 ;
568 [label=<gini = 0.375<br/>samples = 4<br/>value = [3, 1]<br/>class = No Diabetes>, fillcolor="#eeab7b"] ;
567 -> 568 ;
569 [label=<Education &le; 5.5<br/>gini = 0.099<br/>samples = 3240<br/>value = [3070, 170]<br/>class = No Diabetes>, fillcolor="#e68844"] ;
567 -> 569 ;
570 [label=<Education &le; 4.5<br/>gini = 0.116<br/>samples = 904<br/>value = [848, 56]<br/>class = No Diabetes>, fillcolor="#e78946"] ;
569 -> 570 ;
571 [label=<Education &le; 3.5<br/>gini = 0.087<br/>samples = 331<br/>value = [316, 15]<br/>class = No Diabetes>, fillcolor="#e68742"] ;
570 -> 571 ;
572 [label=<gini = 0.117<br/>samples = 16<br/>value = [15, 1]<br/>class = No Diabetes>, fillcolor="#e78946"] ;
571 -> 572 ;
573 [label=<gini = 0.085<br/>samples = 315<br/>value = [301, 14]<br/>class = No Diabetes>, fillcolor="#e68742"] ;
571 -> 573 ;
574 [label=<gini = 0.133<br/>samples = 573<br/>value = [532, 41]<br/>class = No Diabetes>, fillcolor="#e78b48"] ;
570 -> 574 ;
575 [label=<gini = 0.093<br/>samples = 2336<br/>value = [2222, 114]<br/>class = No Diabetes>, fillcolor="#e68743"] ;
569 -> 575 ;
576 [label=<Income &le; 7.5<br/>gini = 0.219<br/>samples = 21395<br/>value = [18711, 2684]<br/>class = No Diabetes>, fillcolor="#e99355"] ;
534 -> 576 ;
577 [label=<Education &le; 3.5<br/>gini = 0.242<br/>samples = 11674<br/>value = [10030, 1644]<br/>class = No Diabetes>, fillcolor="#e99659"] ;
576 -> 577 ;
578 [label=<Income &le; 5.5<br/>gini = 0.308<br/>samples = 258<br/>value = [209, 49]<br/>class = No Diabetes>, fillcolor="#eb9f67"] ;
577 -> 578 ;
579 [label=<Education &le; 2.5<br/>gini = 0.26<br/>samples = 117<br/>value = [99, 18]<br/>class = No Diabetes>, fillcolor="#ea985d"] ;
578 -> 579 ;
580 [label=<Education &le; 1.5<br/>gini = 0.32<br/>samples = 30<br/>value = [24, 6]<br/>class = No Diabetes>, fillcolor="#eca06a"] ;
579 -> 580 ;
581 [label=<gini = 0.0<br/>samples = 1<br/>value = [1, 0]<br/>class = No Diabetes>, fillcolor="#e58139"] ;
580 -> 581 ;
582 [label=<gini = 0.328<br/>samples = 29<br/>value = [23, 6]<br/>class = No Diabetes>, fillcolor="#eca26d"] ;
580 -> 582 ;
583 [label=<gini = 0.238<br/>samples = 87<br/>value = [75, 12]<br/>class = No Diabetes>, fillcolor="#e99559"] ;
579 -> 583 ;
584 [label=<Education &le; 1.5<br/>gini = 0.343<br/>samples = 141<br/>value = [110, 31]<br/>class = No Diabetes>, fillcolor="#eca571"] ;
578 -> 584 ;
585 [label=<gini = 0.0<br/>samples = 2<br/>value = [2, 0]<br/>class = No Diabetes>, fillcolor="#e58139"] ;
584 -> 585 ;
586 [label=<Education &le; 2.5<br/>gini = 0.347<br/>samples = 139<br/>value = [108.0, 31.0]<br/>class = No Diabetes>, fillcolor="#eca572"] ;
584 -> 586 ;
587 [label=<Income &le; 6.5<br/>gini = 0.386<br/>samples = 23<br/>value = [17, 6]<br/>class = No Diabetes>, fillcolor="#eead7f"] ;
586 -> 587 ;
588 [label=<gini = 0.36<br/>samples = 17<br/>value = [13, 4]<br/>class = No Diabetes>, fillcolor="#eda876"] ;
587 -> 588 ;
589 [label=<gini = 0.444<br/>samples = 6<br/>value = [4, 2]<br/>class = No Diabetes>, fillcolor="#f2c09c"] ;
587 -> 589 ;
590 [label=<Income &le; 6.5<br/>gini = 0.338<br/>samples = 116<br/>value = [91, 25]<br/>class = No Diabetes>, fillcolor="#eca46f"] ;
586 -> 590 ;
591 [label=<gini = 0.355<br/>samples = 65<br/>value = [50, 15]<br/>class = No Diabetes>, fillcolor="#eda774"] ;
590 -> 591 ;
592 [label=<gini = 0.315<br/>samples = 51<br/>value = [41, 10]<br/>class = No Diabetes>, fillcolor="#eba069"] ;
590 -> 592 ;
593 [label=<Income &le; 5.5<br/>gini = 0.24<br/>samples = 11416<br/>value = [9821.0, 1595.0]<br/>class = No Diabetes>, fillcolor="#e99559"] ;
577 -> 593 ;
594 [label=<Education &le; 4.5<br/>gini = 0.254<br/>samples = 2545<br/>value = [2165, 380]<br/>class = No Diabetes>, fillcolor="#ea975c"] ;
593 -> 594 ;
595 [label=<gini = 0.268<br/>samples = 924<br/>value = [777, 147]<br/>class = No Diabetes>, fillcolor="#ea995e"] ;
594 -> 595 ;
596 [label=<Education &le; 5.5<br/>gini = 0.246<br/>samples = 1621<br/>value = [1388, 233]<br/>class = No Diabetes>, fillcolor="#e9965a"] ;
594 -> 596 ;
597 [label=<gini = 0.244<br/>samples = 900<br/>value = [772, 128]<br/>class = No Diabetes>, fillcolor="#e9965a"] ;
596 -> 597 ;
598 [label=<gini = 0.249<br/>samples = 721<br/>value = [616, 105]<br/>class = No Diabetes>, fillcolor="#e9965b"] ;
596 -> 598 ;
599 [label=<Income &le; 6.5<br/>gini = 0.236<br/>samples = 8871<br/>value = [7656.0, 1215.0]<br/>class = No Diabetes>, fillcolor="#e99558"] ;
593 -> 599 ;
600 [label=<Education &le; 5.5<br/>gini = 0.23<br/>samples = 3939<br/>value = [3418, 521]<br/>class = No Diabetes>, fillcolor="#e99457"] ;
599 -> 600 ;
601 [label=<Education &le; 4.5<br/>gini = 0.233<br/>samples = 2549<br/>value = [2205.0, 344.0]<br/>class = No Diabetes>, fillcolor="#e99558"] ;
600 -> 601 ;
602 [label=<gini = 0.238<br/>samples = 1198<br/>value = [1033, 165]<br/>class = No Diabetes>, fillcolor="#e99559"] ;
601 -> 602 ;
603 [label=<gini = 0.23<br/>samples = 1351<br/>value = [1172.0, 179.0]<br/>class = No Diabetes>, fillcolor="#e99457"] ;
601 -> 603 ;
604 [label=<gini = 0.222<br/>samples = 1390<br/>value = [1213, 177]<br/>class = No Diabetes>, fillcolor="#e99356"] ;
600 -> 604 ;
605 [label=<Education &le; 4.5<br/>gini = 0.242<br/>samples = 4932<br/>value = [4238, 694]<br/>class = No Diabetes>, fillcolor="#e99659"] ;
599 -> 605 ;
606 [label=<gini = 0.227<br/>samples = 1070<br/>value = [930, 140]<br/>class = No Diabetes>, fillcolor="#e99457"] ;
605 -> 606 ;
607 [label=<Education &le; 5.5<br/>gini = 0.246<br/>samples = 3862<br/>value = [3308, 554]<br/>class = No Diabetes>, fillcolor="#e9965a"] ;
605 -> 607 ;
608 [label=<gini = 0.257<br/>samples = 1512<br/>value = [1283, 229]<br/>class = No Diabetes>, fillcolor="#ea975c"] ;
607 -> 608 ;
609 [label=<gini = 0.238<br/>samples = 2350<br/>value = [2025, 325]<br/>class = No Diabetes>, fillcolor="#e99559"] ;
607 -> 609 ;
610 [label=<Education &le; 5.5<br/>gini = 0.191<br/>samples = 9721<br/>value = [8681, 1040]<br/>class = No Diabetes>, fillcolor="#e89051"] ;
576 -> 610 ;
611 [label=<Education &le; 4.5<br/>gini = 0.205<br/>samples = 3332<br/>value = [2946, 386]<br/>class = No Diabetes>, fillcolor="#e89253"] ;
610 -> 611 ;
612 [label=<Education &le; 3.5<br/>gini = 0.182<br/>samples = 1256<br/>value = [1129, 127]<br/>class = No Diabetes>, fillcolor="#e88f4f"] ;
611 -> 612 ;
613 [label=<Education &le; 2.5<br/>gini = 0.271<br/>samples = 62<br/>value = [52, 10]<br/>class = No Diabetes>, fillcolor="#ea995f"] ;
612 -> 613 ;
614 [label=<gini = 0.0<br/>samples = 9<br/>value = [9, 0]<br/>class = No Diabetes>, fillcolor="#e58139"] ;
613 -> 614 ;
615 [label=<gini = 0.306<br/>samples = 53<br/>value = [43, 10]<br/>class = No Diabetes>, fillcolor="#eb9e67"] ;
613 -> 615 ;
616 [label=<gini = 0.177<br/>samples = 1194<br/>value = [1077, 117]<br/>class = No Diabetes>, fillcolor="#e88f4f"] ;
612 -> 616 ;
617 [label=<gini = 0.218<br/>samples = 2076<br/>value = [1817, 259]<br/>class = No Diabetes>, fillcolor="#e99355"] ;
611 -> 617 ;
618 [label=<gini = 0.184<br/>samples = 6389<br/>value = [5735, 654]<br/>class = No Diabetes>, fillcolor="#e88f50"] ;
610 -> 618 ;
619 [label=<Income &le; 6.5<br/>gini = 0.381<br/>samples = 31084<br/>value = [23136, 7948]<br/>class = No Diabetes>, fillcolor="#eeac7d"] ;
449 -> 619 ;
620 [label=<Income &le; 4.5<br/>gini = 0.399<br/>samples = 17736<br/>value = [12858, 4878]<br/>class = No Diabetes>, fillcolor="#efb184"] ;
619 -> 620 ;
621 [label=<Education &le; 3.5<br/>gini = 0.41<br/>samples = 8455<br/>value = [6020, 2435]<br/>class = No Diabetes>, fillcolor="#f0b489"] ;
620 -> 621 ;
622 [label=<Income &le; 3.5<br/>gini = 0.433<br/>samples = 1250<br/>value = [853, 397]<br/>class = No Diabetes>, fillcolor="#f1bc95"] ;
621 -> 622 ;
623 [label=<Education &le; 2.5<br/>gini = 0.423<br/>samples = 920<br/>value = [640, 280]<br/>class = No Diabetes>, fillcolor="#f0b890"] ;
622 -> 623 ;
624 [label=<Income &le; 2.5<br/>gini = 0.443<br/>samples = 290<br/>value = [194, 96]<br/>class = No Diabetes>, fillcolor="#f2bf9b"] ;
623 -> 624 ;
625 [label=<Education &le; 1.5<br/>gini = 0.467<br/>samples = 196<br/>value = [123, 73]<br/>class = No Diabetes>, fillcolor="#f4ccaf"] ;
624 -> 625 ;
626 [label=<Income &le; 1.5<br/>gini = 0.48<br/>samples = 5<br/>value = [2, 3]<br/>class = Diabetes>, fillcolor="#bddef6"] ;
625 -> 626 ;
627 [label=<gini = 0.444<br/>samples = 3<br/>value = [1, 2]<br/>class = Diabetes>, fillcolor="#9ccef2"] ;
626 -> 627 ;
628 [label=<gini = 0.5<br/>samples = 2<br/>value = [1, 1]<br/>class = No Diabetes>, fillcolor="#ffffff"] ;
626 -> 628 ;
629 [label=<Income &le; 1.5<br/>gini = 0.464<br/>samples = 191<br/>value = [121.0, 70.0]<br/>class = No Diabetes>, fillcolor="#f4caac"] ;
625 -> 629 ;
630 [label=<gini = 0.444<br/>samples = 93<br/>value = [62, 31]<br/>class = No Diabetes>, fillcolor="#f2c09c"] ;
629 -> 630 ;
631 [label=<gini = 0.479<br/>samples = 98<br/>value = [59, 39]<br/>class = No Diabetes>, fillcolor="#f6d4bc"] ;
629 -> 631 ;
632 [label=<Education &le; 1.5<br/>gini = 0.37<br/>samples = 94<br/>value = [71, 23]<br/>class = No Diabetes>, fillcolor="#edaa79"] ;
624 -> 632 ;
633 [label=<gini = 0.375<br/>samples = 4<br/>value = [3, 1]<br/>class = No Diabetes>, fillcolor="#eeab7b"] ;
632 -> 633 ;
634 [label=<gini = 0.369<br/>samples = 90<br/>value = [68, 22]<br/>class = No Diabetes>, fillcolor="#edaa79"] ;
632 -> 634 ;
635 [label=<Income &le; 1.5<br/>gini = 0.414<br/>samples = 630<br/>value = [446, 184]<br/>class = No Diabetes>, fillcolor="#f0b58b"] ;
623 -> 635 ;
636 [label=<gini = 0.392<br/>samples = 172<br/>value = [126.0, 46.0]<br/>class = No Diabetes>, fillcolor="#eeaf81"] ;
635 -> 636 ;
637 [label=<Income &le; 2.5<br/>gini = 0.421<br/>samples = 458<br/>value = [320, 138]<br/>class = No Diabetes>, fillcolor="#f0b78e"] ;
635 -> 637 ;
638 [label=<gini = 0.419<br/>samples = 201<br/>value = [141.0, 60.0]<br/>class = No Diabetes>, fillcolor="#f0b78d"] ;
637 -> 638 ;
639 [label=<gini = 0.423<br/>samples = 257<br/>value = [179, 78]<br/>class = No Diabetes>, fillcolor="#f0b88f"] ;
637 -> 639 ;
640 [label=<Education &le; 2.5<br/>gini = 0.458<br/>samples = 330<br/>value = [213.0, 117.0]<br/>class = No Diabetes>, fillcolor="#f3c6a6"] ;
622 -> 640 ;
641 [label=<Education &le; 1.5<br/>gini = 0.348<br/>samples = 89<br/>value = [69, 20]<br/>class = No Diabetes>, fillcolor="#eda672"] ;
640 -> 641 ;
642 [label=<gini = 0.0<br/>samples = 1<br/>value = [1, 0]<br/>class = No Diabetes>, fillcolor="#e58139"] ;
641 -> 642 ;
643 [label=<gini = 0.351<br/>samples = 88<br/>value = [68, 20]<br/>class = No Diabetes>, fillcolor="#eda673"] ;
641 -> 643 ;
644 [label=<gini = 0.481<br/>samples = 241<br/>value = [144, 97]<br/>class = No Diabetes>, fillcolor="#f7d6be"] ;
640 -> 644 ;
645 [label=<Income &le; 3.5<br/>gini = 0.406<br/>samples = 7205<br/>value = [5167, 2038]<br/>class = No Diabetes>, fillcolor="#efb387"] ;
621 -> 645 ;
646 [label=<Income &le; 1.5<br/>gini = 0.411<br/>samples = 4367<br/>value = [3107, 1260]<br/>class = No Diabetes>, fillcolor="#f0b489"] ;
645 -> 646 ;
647 [label=<Education &le; 5.5<br/>gini = 0.392<br/>samples = 882<br/>value = [646, 236]<br/>class = No Diabetes>, fillcolor="#eeaf81"] ;
646 -> 647 ;
648 [label=<Education &le; 4.5<br/>gini = 0.395<br/>samples = 739<br/>value = [539, 200]<br/>class = No Diabetes>, fillcolor="#efb082"] ;
647 -> 648 ;
649 [label=<gini = 0.396<br/>samples = 464<br/>value = [338, 126]<br/>class = No Diabetes>, fillcolor="#efb083"] ;
648 -> 649 ;
650 [label=<gini = 0.393<br/>samples = 275<br/>value = [201, 74]<br/>class = No Diabetes>, fillcolor="#efaf82"] ;
648 -> 650 ;
651 [label=<gini = 0.377<br/>samples = 143<br/>value = [107, 36]<br/>class = No Diabetes>, fillcolor="#eeab7c"] ;
647 -> 651 ;
652 [label=<Education &le; 4.5<br/>gini = 0.415<br/>samples = 3485<br/>value = [2461, 1024]<br/>class = No Diabetes>, fillcolor="#f0b58b"] ;
646 -> 652 ;
653 [label=<Income &le; 2.5<br/>gini = 0.42<br/>samples = 1837<br/>value = [1285, 552]<br/>class = No Diabetes>, fillcolor="#f0b78e"] ;
652 -> 653 ;
654 [label=<gini = 0.423<br/>samples = 768<br/>value = [535, 233]<br/>class = No Diabetes>, fillcolor="#f0b88f"] ;
653 -> 654 ;
655 [label=<gini = 0.419<br/>samples = 1069<br/>value = [750, 319]<br/>class = No Diabetes>, fillcolor="#f0b78d"] ;
653 -> 655 ;
656 [label=<Income &le; 2.5<br/>gini = 0.409<br/>samples = 1648<br/>value = [1176, 472]<br/>class = No Diabetes>, fillcolor="#efb488"] ;
652 -> 656 ;
657 [label=<Education &le; 5.5<br/>gini = 0.421<br/>samples = 614<br/>value = [429, 185]<br/>class = No Diabetes>, fillcolor="#f0b78e"] ;
656 -> 657 ;
658 [label=<gini = 0.428<br/>samples = 426<br/>value = [294, 132]<br/>class = No Diabetes>, fillcolor="#f1ba92"] ;
657 -> 658 ;
659 [label=<gini = 0.405<br/>samples = 188<br/>value = [135, 53]<br/>class = No Diabetes>, fillcolor="#efb287"] ;
657 -> 659 ;
660 [label=<Education &le; 5.5<br/>gini = 0.401<br/>samples = 1034<br/>value = [747, 287]<br/>class = No Diabetes>, fillcolor="#efb185"] ;
656 -> 660 ;
661 [label=<gini = 0.4<br/>samples = 716<br/>value = [518, 198]<br/>class = No Diabetes>, fillcolor="#efb185"] ;
660 -> 661 ;
662 [label=<gini = 0.403<br/>samples = 318<br/>value = [229.0, 89.0]<br/>class = No Diabetes>, fillcolor="#efb286"] ;
660 -> 662 ;
663 [label=<Education &le; 4.5<br/>gini = 0.398<br/>samples = 2838<br/>value = [2060.0, 778.0]<br/>class = No Diabetes>, fillcolor="#efb184"] ;
645 -> 663 ;
664 [label=<gini = 0.39<br/>samples = 1406<br/>value = [1033.0, 373.0]<br/>class = No Diabetes>, fillcolor="#eeae80"] ;
663 -> 664 ;
665 [label=<Education &le; 5.5<br/>gini = 0.406<br/>samples = 1432<br/>value = [1027, 405]<br/>class = No Diabetes>, fillcolor="#efb387"] ;
663 -> 665 ;
666 [label=<gini = 0.413<br/>samples = 969<br/>value = [687, 282]<br/>class = No Diabetes>, fillcolor="#f0b58a"] ;
665 -> 666 ;
667 [label=<gini = 0.39<br/>samples = 463<br/>value = [340, 123]<br/>class = No Diabetes>, fillcolor="#eeaf81"] ;
665 -> 667 ;
668 [label=<Education &le; 4.5<br/>gini = 0.388<br/>samples = 9281<br/>value = [6838.0, 2443.0]<br/>class = No Diabetes>, fillcolor="#eeae80"] ;
620 -> 668 ;
669 [label=<Education &le; 2.5<br/>gini = 0.384<br/>samples = 3749<br/>value = [2779, 970]<br/>class = No Diabetes>, fillcolor="#eead7e"] ;
668 -> 669 ;
670 [label=<Income &le; 5.5<br/>gini = 0.417<br/>samples = 98<br/>value = [69, 29]<br/>class = No Diabetes>, fillcolor="#f0b68c"] ;
669 -> 670 ;
671 [label=<Education &le; 1.5<br/>gini = 0.388<br/>samples = 57<br/>value = [42, 15]<br/>class = No Diabetes>, fillcolor="#eeae80"] ;
670 -> 671 ;
672 [label=<gini = 0.0<br/>samples = 1<br/>value = [0, 1]<br/>class = Diabetes>, fillcolor="#399de5"] ;
671 -> 672 ;
673 [label=<gini = 0.375<br/>samples = 56<br/>value = [42, 14]<br/>class = No Diabetes>, fillcolor="#eeab7b"] ;
671 -> 673 ;
674 [label=<Education &le; 1.5<br/>gini = 0.45<br/>samples = 41<br/>value = [27.0, 14.0]<br/>class = No Diabetes>, fillcolor="#f2c2a0"] ;
670 -> 674 ;
675 [label=<gini = 0.32<br/>samples = 5<br/>value = [4, 1]<br/>class = No Diabetes>, fillcolor="#eca06a"] ;
674 -> 675 ;
676 [label=<gini = 0.461<br/>samples = 36<br/>value = [23, 13]<br/>class = No Diabetes>, fillcolor="#f4c8a9"] ;
674 -> 676 ;
677 [label=<Income &le; 5.5<br/>gini = 0.383<br/>samples = 3651<br/>value = [2710, 941]<br/>class = No Diabetes>, fillcolor="#eead7e"] ;
669 -> 677 ;
678 [label=<Education &le; 3.5<br/>gini = 0.389<br/>samples = 1722<br/>value = [1267, 455]<br/>class = No Diabetes>, fillcolor="#eeae80"] ;
677 -> 678 ;
679 [label=<gini = 0.351<br/>samples = 203<br/>value = [157, 46]<br/>class = No Diabetes>, fillcolor="#eda673"] ;
678 -> 679 ;
680 [label=<gini = 0.394<br/>samples = 1519<br/>value = [1110, 409]<br/>class = No Diabetes>, fillcolor="#efaf82"] ;
678 -> 680 ;
681 [label=<Education &le; 3.5<br/>gini = 0.377<br/>samples = 1929<br/>value = [1443, 486]<br/>class = No Diabetes>, fillcolor="#eeab7c"] ;
677 -> 681 ;
682 [label=<gini = 0.383<br/>samples = 151<br/>value = [112, 39]<br/>class = No Diabetes>, fillcolor="#eead7e"] ;
681 -> 682 ;
683 [label=<gini = 0.376<br/>samples = 1778<br/>value = [1331, 447]<br/>class = No Diabetes>, fillcolor="#eeab7b"] ;
681 -> 683 ;
684 [label=<Education &le; 5.5<br/>gini = 0.391<br/>samples = 5532<br/>value = [4059.0, 1473.0]<br/>class = No Diabetes>, fillcolor="#eeaf81"] ;
668 -> 684 ;
685 [label=<Income &le; 5.5<br/>gini = 0.398<br/>samples = 3047<br/>value = [2213, 834]<br/>class = No Diabetes>, fillcolor="#efb084"] ;
684 -> 685 ;
686 [label=<gini = 0.399<br/>samples = 1298<br/>value = [940.0, 358.0]<br/>class = No Diabetes>, fillcolor="#efb184"] ;
685 -> 686 ;
687 [label=<gini = 0.396<br/>samples = 1749<br/>value = [1273.0, 476.0]<br/>class = No Diabetes>, fillcolor="#efb083"] ;
685 -> 687 ;
688 [label=<Income &le; 5.5<br/>gini = 0.382<br/>samples = 2485<br/>value = [1846.0, 639.0]<br/>class = No Diabetes>, fillcolor="#eead7e"] ;
684 -> 688 ;
689 [label=<gini = 0.377<br/>samples = 858<br/>value = [642.0, 216.0]<br/>class = No Diabetes>, fillcolor="#eeab7c"] ;
688 -> 689 ;
690 [label=<gini = 0.385<br/>samples = 1627<br/>value = [1204, 423]<br/>class = No Diabetes>, fillcolor="#eead7f"] ;
688 -> 690 ;
691 [label=<Income &le; 7.5<br/>gini = 0.354<br/>samples = 13348<br/>value = [10278, 3070]<br/>class = No Diabetes>, fillcolor="#eda774"] ;
619 -> 691 ;
692 [label=<Education &le; 4.5<br/>gini = 0.368<br/>samples = 5418<br/>value = [4102, 1316]<br/>class = No Diabetes>, fillcolor="#eda979"] ;
691 -> 692 ;
693 [label=<Education &le; 1.5<br/>gini = 0.354<br/>samples = 1490<br/>value = [1147, 343]<br/>class = No Diabetes>, fillcolor="#eda774"] ;
692 -> 693 ;
694 [label=<gini = 0.0<br/>samples = 3<br/>value = [3, 0]<br/>class = No Diabetes>, fillcolor="#e58139"] ;
693 -> 694 ;
695 [label=<Education &le; 3.5<br/>gini = 0.355<br/>samples = 1487<br/>value = [1144, 343]<br/>class = No Diabetes>, fillcolor="#eda774"] ;
693 -> 695 ;
696 [label=<Education &le; 2.5<br/>gini = 0.383<br/>samples = 116<br/>value = [86.0, 30.0]<br/>class = No Diabetes>, fillcolor="#eead7e"] ;
695 -> 696 ;
697 [label=<gini = 0.363<br/>samples = 21<br/>value = [16, 5]<br/>class = No Diabetes>, fillcolor="#eda877"] ;
696 -> 697 ;
698 [label=<gini = 0.388<br/>samples = 95<br/>value = [70, 25]<br/>class = No Diabetes>, fillcolor="#eeae80"] ;
696 -> 698 ;
699 [label=<gini = 0.352<br/>samples = 1371<br/>value = [1058, 313]<br/>class = No Diabetes>, fillcolor="#eda674"] ;
695 -> 699 ;
700 [label=<Education &le; 5.5<br/>gini = 0.373<br/>samples = 3928<br/>value = [2955, 973]<br/>class = No Diabetes>, fillcolor="#eeaa7a"] ;
692 -> 700 ;
701 [label=<gini = 0.369<br/>samples = 1755<br/>value = [1327, 428]<br/>class = No Diabetes>, fillcolor="#edaa79"] ;
700 -> 701 ;
702 [label=<gini = 0.376<br/>samples = 2173<br/>value = [1628.0, 545.0]<br/>class = No Diabetes>, fillcolor="#eeab7b"] ;
700 -> 702 ;
703 [label=<Education &le; 5.5<br/>gini = 0.345<br/>samples = 7930<br/>value = [6176, 1754]<br/>class = No Diabetes>, fillcolor="#eca571"] ;
691 -> 703 ;
704 [label=<Education &le; 4.5<br/>gini = 0.356<br/>samples = 3246<br/>value = [2494, 752]<br/>class = No Diabetes>, fillcolor="#eda775"] ;
703 -> 704 ;
705 [label=<Education &le; 2.5<br/>gini = 0.341<br/>samples = 1314<br/>value = [1027, 287]<br/>class = No Diabetes>, fillcolor="#eca470"] ;
704 -> 705 ;
706 [label=<Education &le; 1.5<br/>gini = 0.43<br/>samples = 16<br/>value = [11, 5]<br/>class = No Diabetes>, fillcolor="#f1ba93"] ;
705 -> 706 ;
707 [label=<gini = 0.0<br/>samples = 2<br/>value = [2, 0]<br/>class = No Diabetes>, fillcolor="#e58139"] ;
706 -> 707 ;
708 [label=<gini = 0.459<br/>samples = 14<br/>value = [9, 5]<br/>class = No Diabetes>, fillcolor="#f3c7a7"] ;
706 -> 708 ;
709 [label=<Education &le; 3.5<br/>gini = 0.34<br/>samples = 1298<br/>value = [1016, 282]<br/>class = No Diabetes>, fillcolor="#eca470"] ;
705 -> 709 ;
710 [label=<gini = 0.367<br/>samples = 62<br/>value = [47, 15]<br/>class = No Diabetes>, fillcolor="#eda978"] ;
709 -> 710 ;
711 [label=<gini = 0.339<br/>samples = 1236<br/>value = [969, 267]<br/>class = No Diabetes>, fillcolor="#eca470"] ;
709 -> 711 ;
712 [label=<gini = 0.366<br/>samples = 1932<br/>value = [1467, 465]<br/>class = No Diabetes>, fillcolor="#eda978"] ;
704 -> 712 ;
713 [label=<gini = 0.336<br/>samples = 4684<br/>value = [3682, 1002]<br/>class = No Diabetes>, fillcolor="#eca36f"] ;
703 -> 713 ;
714 [label=<GenHlth &le; 4.5<br/>gini = 0.481<br/>samples = 23089<br/>value = [13805, 9284]<br/>class = No Diabetes>, fillcolor="#f6d6be"] ;
448 -> 714 ;
715 [label=<Income &le; 2.5<br/>gini = 0.471<br/>samples = 16404<br/>value = [10170, 6234]<br/>class = No Diabetes>, fillcolor="#f5ceb2"] ;
714 -> 715 ;
